{"learner":{"attributes":{},"feature_names":[],"feature_types":[],"gradient_booster":{"model":{"gbtree_model_param":{"num_parallel_tree":"1","num_trees":"716"},"iteration_indptr":[0,1,2,3,4,5,6,7,8,9,10,11,12,13,14,15,16,17,18,19,20,21,22,23,24,25,26,27,28,29,30,31,32,33,34,35,36,37,38,39,40,41,42,43,44,45,46,47,48,49,50,51,52,53,54,55,56,57,58,59,60,61,62,63,64,65,66,67,68,69,70,71,72,73,74,75,76,77,78,79,80,81,82,83,84,85,86,87,88,89,90,91,92,93,94,95,96,97,98,99,100,101,102,103,104,105,106,107,108,109,110,111,112,113,114,115,116,117,118,119,120,121,122,123,124,125,126,127,128,129,130,131,132,133,134,135,136,137,138,139,140,141,142,143,144,145,146,147,148,149,150,151,152,153,154,155,156,157,158,159,160,161,162,163,164,165,166,167,168,169,170,171,172,173,174,175,176,177,178,179,180,181,182,183,184,185,186,187,188,189,190,191,192,193,194,195,196,197,198,199,200,201,202,203,204,205,206,207,208,209,210,211,212,213,214,215,216,217,218,219,220,221,222,223,224,225,226,227,228,229,230,231,232,233,234,235,236,237,238,239,240,241,242,243,244,245,246,247,248,249,250,251,252,253,254,255,256,257,258,259,260,261,262,263,264,265,266,267,268,269,270,271,272,273,274,275,276,277,278,279,280,281,282,283,284,285,286,287,288,289,290,291,292,293,294,295,296,297,298,299,300,301,302,303,304,305,306,307,308,309,310,311,312,313,314,315,316,317,318,319,320,321,322,323,324,325,326,327,328,329,330,331,332,333,334,335,336,337,338,339,340,341,342,343,344,345,346,347,348,349,350,351,352,353,354,355,356,357,358,359,360,361,362,363,364,365,366,367,368,369,370,371,372,373,374,375,376,377,378,379,380,381,382,383,384,385,386,387,388,389,390,391,392,393,394,395,396,397,398,399,400,401,402,403,404,405,406,407,408,409,410,411,412,413,414,415,416,417,418,419,420,421,422,423,424,425,426,427,428,429,430,431,432,433,434,435,436,437,438,439,440,441,442,443,444,445,446,447,448,449,450,451,452,453,454,455,456,457,458,459,460,461,462,463,464,465,466,467,468,469,470,471,472,473,474,475,476,477,478,479,480,481,482,483,484,485,486,487,488,489,490,491,492,493,494,495,496,497,498,499,500,501,502,503,504,505,506,507,508,509,510,511,512,513,514,515,516,517,518,519,520,521,522,523,524,525,526,527,528,529,530,531,532,533,534,535,536,537,538,539,540,541,542,543,544,545,546,547,548,549,550,551,552,553,554,555,556,557,558,559,560,561,562,563,564,565,566,567,568,569,570,571,572,573,574,575,576,577,578,579,580,581,582,583,584,585,586,587,588,589,590,591,592,593,594,595,596,597,598,599,600,601,602,603,604,605,606,607,608,609,610,611,612,613,614,615,616,617,618,619,620,621,622,623,624,625,626,627,628,629,630,631,632,633,634,635,636,637,638,639,640,641,642,643,644,645,646,647,648,649,650,651,652,653,654,655,656,657,658,659,660,661,662,663,664,665,666,667,668,669,670,671,672,673,674,675,676,677,678,679,680,681,682,683,684,685,686,687,688,689,690,691,692,693,694,695,696,697,698,699,700,701,702,703,704,705,706,707,708,709,710,711,712,713,714,715,716],"tree_info":[0,0,0,0,0,0,0,0,0,0,0,0,0,0,0,0,0,0,0,0,0,0,0,0,0,0,0,0,0,0,0,0,0,0,0,0,0,0,0,0,0,0,0,0,0,0,0,0,0,0,0,0,0,0,0,0,0,0,0,0,0,0,0,0,0,0,0,0,0,0,0,0,0,0,0,0,0,0,0,0,0,0,0,0,0,0,0,0,0,0,0,0,0,0,0,0,0,0,0,0,0,0,0,0,0,0,0,0,0,0,0,0,0,0,0,0,0,0,0,0,0,0,0,0,0,0,0,0,0,0,0,0,0,0,0,0,0,0,0,0,0,0,0,0,0,0,0,0,0,0,0,0,0,0,0,0,0,0,0,0,0,0,0,0,0,0,0,0,0,0,0,0,0,0,0,0,0,0,0,0,0,0,0,0,0,0,0,0,0,0,0,0,0,0,0,0,0,0,0,0,0,0,0,0,0,0,0,0,0,0,0,0,0,0,0,0,0,0,0,0,0,0,0,0,0,0,0,0,0,0,0,0,0,0,0,0,0,0,0,0,0,0,0,0,0,0,0,0,0,0,0,0,0,0,0,0,0,0,0,0,0,0,0,0,0,0,0,0,0,0,0,0,0,0,0,0,0,0,0,0,0,0,0,0,0,0,0,0,0,0,0,0,0,0,0,0,0,0,0,0,0,0,0,0,0,0,0,0,0,0,0,0,0,0,0,0,0,0,0,0,0,0,0,0,0,0,0,0,0,0,0,0,0,0,0,0,0,0,0,0,0,0,0,0,0,0,0,0,0,0,0,0,0,0,0,0,0,0,0,0,0,0,0,0,0,0,0,0,0,0,0,0,0,0,0,0,0,0,0,0,0,0,0,0,0,0,0,0,0,0,0,0,0,0,0,0,0,0,0,0,0,0,0,0,0,0,0,0,0,0,0,0,0,0,0,0,0,0,0,0,0,0,0,0,0,0,0,0,0,0,0,0,0,0,0,0,0,0,0,0,0,0,0,0,0,0,0,0,0,0,0,0,0,0,0,0,0,0,0,0,0,0,0,0,0,0,0,0,0,0,0,0,0,0,0,0,0,0,0,0,0,0,0,0,0,0,0,0,0,0,0,0,0,0,0,0,0,0,0,0,0,0,0,0,0,0,0,0,0,0,0,0,0,0,0,0,0,0,0,0,0,0,0,0,0,0,0,0,0,0,0,0,0,0,0,0,0,0,0,0,0,0,0,0,0,0,0,0,0,0,0,0,0,0,0,0,0,0,0,0,0,0,0,0,0,0,0,0,0,0,0,0,0,0,0,0,0,0,0,0,0,0,0,0,0,0,0,0,0,0,0,0,0,0,0,0,0,0,0,0,0,0,0,0,0,0,0,0,0,0,0,0,0,0,0,0,0,0,0,0,0,0,0,0,0,0,0,0,0,0,0,0,0,0,0,0,0,0,0,0,0,0,0,0,0,0,0,0,0,0,0,0,0,0,0,0,0,0,0,0,0,0,0,0,0,0,0,0,0,0,0,0,0,0,0,0,0,0,0,0,0,0,0,0,0,0,0,0,0,0,0,0,0,0,0,0,0,0,0,0,0,0,0,0,0,0,0,0,0,0,0,0,0,0,0,0],"trees":[{"base_weights":[-4.657412E-2,2.7853234E0,-1.1848415E0,1.9749178E0,2.8371813E0,-1.0938061E0,-1.4284377E0,3.4456678E-2,6.1158042E-2,8.0063306E-2,6.2445734E-2,-3.870314E-2,-2.639918E-2,-3.5817456E-2,-3.935169E-2],"categories":[],"categories_nodes":[],"categories_segments":[],"categories_sizes":[],"default_left":[0,0,1,0,0,0,0,0,0,0,0,0,0,0,0],"id":0,"left_children":[1,3,5,7,9,11,13,-1,-1,-1,-1,-1,-1,-1,-1],"loss_changes":[7.4312336E4,2.7216797E2,3.6309766E2,7.3060425E1,3.2114453E2,4.9012793E2,5.013672E0,0E0,0E0,0E0,0E0,0E0,0E0,0E0,0E0],"parents":[2147483647,0,0,1,1,2,2,3,3,4,4,5,5,6,6],"right_children":[2,4,6,8,10,12,14,-1,-1,-1,-1,-1,-1,-1,-1],"split_conditions":[1.1E1,-7.2E-1,1.1E0,2E0,6E-1,-1.05E0,1.17E0,3.4456678E-2,6.1158042E-2,8.0063306E-2,6.2445734E-2,-3.870314E-2,-2.639918E-2,-3.5817456E-2,-3.935169E-2],"split_indices":[0,3,3,0,3,3,3,0,0,0,0,0,0,0,0],"split_type":[0,0,0,0,0,0,0,0,0,0,0,0,0,0,0],"sum_hessian":[2.3051596E4,6.6086006E3,1.6442996E4,3.9980173E2,6.208799E3,1.19737295E4,4.4692656E3,1.10164734E2,2.89637E2,5.2806343E3,9.281646E2,3.3603452E3,8.613385E3,4.6910922E2,4.0001562E3],"tree_param":{"num_deleted":"0","num_feature":"6","num_nodes":"15","size_leaf_vector":"1"}},{"base_weights":[-4.4234145E-2,2.6322186E0,-1.1658804E0,1.9638214E0,2.6886878E0,-1.0750293E0,-1.4102203E0,6.1254483E-2,4.250361E-2,7.580927E-2,5.8371596E-2,-3.8219582E-2,-2.587269E-2,-3.527054E-2,-3.886104E-2],"categories":[],"categories_nodes":[],"categories_segments":[],"categories_sizes":[],"default_left":[0,0,1,0,0,0,0,0,0,0,0,0,0,0,0],"id":1,"left_children":[1,3,5,7,9,11,13,-1,-1,-1,-1,-1,-1,-1,-1],"loss_changes":[6.912115E4,2.5136328E2,3.586582E2,5.731494E1,3.0002734E2,4.8785645E2,5.180664E0,0E0,0E0,0E0,0E0,0E0,0E0,0E0,0E0],"parents":[2147483647,0,0,1,1,2,2,3,3,4,4,5,5,6,6],"right_children":[2,4,6,8,10,12,14,-1,-1,-1,-1,-1,-1,-1,-1],"split_conditions":[1.1E1,-6.9E-1,1.1E0,1E0,6.2E-1,-1.05E0,1.17E0,6.1254483E-2,4.250361E-2,7.580927E-2,5.8371596E-2,-3.8219582E-2,-2.587269E-2,-3.527054E-2,-3.886104E-2],"split_indices":[0,3,3,2,3,3,3,0,0,0,0,0,0,0,0],"split_type":[0,0,0,0,0,0,0,0,0,0,0,0,0,0,0],"sum_hessian":[2.3022752E4,6.7986313E3,1.6224121E4,5.3242004E2,6.2662114E3,1.1830621E4,4.3935E3,3.1245673E2,2.1996335E2,5.3922876E3,8.7392346E2,3.3220386E3,8.508583E3,4.6200943E2,3.9314902E3],"tree_param":{"num_deleted":"0","num_feature":"6","num_nodes":"15","size_leaf_vector":"1"}},{"base_weights":[-4.4222508E-2,2.4950938E0,-1.1510645E0,1.8723491E0,2.547652E0,-1.0611062E0,-1.3946986E0,3.557384E-2,5.6906007E-2,7.205829E-2,5.620529E-2,-3.777724E-2,-2.5561543E-2,-3.5473965E-2,-3.8507674E-2],"categories":[],"categories_nodes":[],"categories_segments":[],"categories_sizes":[],"default_left":[0,0,1,0,0,0,0,0,0,0,0,0,0,0,0],"id":2,"left_children":[1,3,5,7,9,11,13,-1,-1,-1,-1,-1,-1,-1,-1],"loss_changes":[6.4730227E4,2.2405469E2,3.5004883E2,6.354016E1,2.8527734E2,4.7025E2,4.7841797E0,0E0,0E0,0E0,0E0,0E0,0E0,0E0,0E0],"parents":[2147483647,0,0,1,1,2,2,3,3,4,4,5,5,6,6],"right_children":[2,4,6,8,10,12,14,-1,-1,-1,-1,-1,-1,-1,-1],"split_conditions":[1.1E1,-6.9E-1,1.1E0,2E0,9E0,-1.05E0,1.2E0,3.557384E-2,5.6906007E-2,7.205829E-2,5.620529E-2,-3.777724E-2,-2.5561543E-2,-3.5473965E-2,-3.8507674E-2],"split_indices":[0,3,3,0,0,3,3,0,0,0,0,0,0,0,0],"split_type":[0,0,0,0,0,0,0,0,0,0,0,0,0,0,0],"sum_hessian":[2.3028549E4,6.990255E3,1.6038293E4,5.46895E2,6.44336E3,1.1717233E4,4.3210596E3,1.5065378E2,3.9624124E2,5.415082E3,1.028278E3,3.2594707E3,8.457763E3,6.381942E2,3.6828652E3],"tree_param":{"num_deleted":"0","num_feature":"6","num_nodes":"15","size_leaf_vector":"1"}},{"base_weights":[-4.30576E-2,2.378428E0,-1.1345549E0,1.6316957E0,2.6082284E0,-1.0453296E0,-1.3767499E0,4.934449E-2,4.0135816E-2,7.214853E-2,6.396292E-2,-3.7384577E-2,-2.5183069E-2,-3.4766737E-2,-3.8047787E-2],"categories":[],"categories_nodes":[],"categories_segments":[],"categories_sizes":[],"default_left":[0,0,1,0,0,0,0,0,0,0,0,0,0,0,0],"id":3,"left_children":[1,3,5,7,9,11,13,-1,-1,-1,-1,-1,-1,-1,-1],"loss_changes":[6.0726836E4,1.2207539E3,3.4080273E2,4.5128418E1,4.4507812E1,4.5945996E2,5.7768555E0,0E0,0E0,0E0,0E0,0E0,0E0,0E0,0E0],"parents":[2147483647,0,0,1,1,2,2,3,3,4,4,5,5,6,6],"right_children":[2,4,6,8,10,12,14,-1,-1,-1,-1,-1,-1,-1,-1],"split_conditions":[1.1E1,1E0,1.1E0,7E0,9E0,-1.06E0,1.2E0,4.934449E-2,4.0135816E-2,7.214853E-2,6.396292E-2,-3.7384577E-2,-2.5183069E-2,-3.4766737E-2,-3.8047787E-2],"split_indices":[0,5,3,0,0,3,3,0,0,0,0,0,0,0,0],"split_type":[0,0,0,0,0,0,0,0,0,0,0,0,0,0,0],"sum_hessian":[2.2974068E4,7.137765E3,1.5836304E4,1.6815853E3,5.4561797E3,1.1576726E4,4.259578E3,7.987591E2,8.8282623E2,4.8099263E3,6.462535E2,3.1746514E3,8.402074E3,6.2061017E2,3.6389678E3],"tree_param":{"num_deleted":"0","num_feature":"6","num_nodes":"15","size_leaf_vector":"1"}},{"base_weights":[-4.2791422E-2,2.2747622E0,-1.1186911E0,1.1665474E0,2.3952518E0,-1.3755999E0,-9.062389E-1,1.7611433E-2,4.018033E-2,6.715059E-2,2.3618892E-2,-3.7987914E-2,-3.425182E-2,-2.2600302E-2,-3.6856793E-2],"categories":[],"categories_nodes":[],"categories_segments":[],"categories_sizes":[],"default_left":[0,0,0,0,0,0,1,0,0,0,0,0,0,0,0],"id":4,"left_children":[1,3,5,7,9,11,13,-1,-1,-1,-1,-1,-1,-1,-1],"loss_changes":[5.6975418E4,9.645703E2,8.505078E2,1.1252051E2,6.4708594E2,1.2033203E1,2.9572852E2,0E0,0E0,0E0,0E0,0E0,0E0,0E0,0E0],"parents":[2147483647,0,0,1,1,2,2,3,3,4,4,5,5,6,6],"right_children":[2,4,6,8,10,12,14,-1,-1,-1,-1,-1,-1,-1,-1],"split_conditions":[1.1E1,1.63E0,1.36E0,1.51E0,3.36E0,1.26E0,3.62E0,1.7611433E-2,4.018033E-2,6.715059E-2,2.3618892E-2,-3.7987914E-2,-3.425182E-2,-2.2600302E-2,-3.6856793E-2],"split_indices":[0,4,4,4,4,4,4,0,0,0,0,0,0,0,0],"split_type":[0,0,0,0,0,0,0,0,0,0,0,0,0,0,0],"sum_hessian":[2.2847967E4,7.243631E3,1.5604337E4,7.11375E2,6.532256E3,7.0606914E3,8.5436455E3,2.6401944E2,4.4735556E2,6.2656445E3,2.666116E2,6.217435E3,8.4325653E2,7.2664688E3,1.2771761E3],"tree_param":{"num_deleted":"0","num_feature":"6","num_nodes":"15","size_leaf_vector":"1"}},{"base_weights":[-4.6139516E-2,2.179751E0,-1.1058806E0,2.2996967E0,1.9302092E0,-1.0157049E0,-1.351571E0,6.3639015E-2,4.992326E-2,5.85392E-2,4.5446098E-2,-3.663842E-2,-2.4295483E-2,-3.4338187E-2,-3.7374422E-2],"categories":[],"categories_nodes":[],"categories_segments":[],"categories_sizes":[],"default_left":[0,0,1,0,0,0,0,0,0,0,0,0,0,0,0],"id":5,"left_children":[1,3,5,7,9,11,13,-1,-1,-1,-1,-1,-1,-1,-1],"loss_changes":[5.368616E4,2.1528125E2,3.4022852E2,6.998242E1,1.3233789E2,4.6162793E2,5.132324E0,0E0,0E0,0E0,0E0,0E0,0E0,0E0,0E0],"parents":[2147483647,0,0,1,1,2,2,3,3,4,4,5,5,6,6],"right_children":[2,4,6,8,10,12,14,-1,-1,-1,-1,-1,-1,-1,-1],"split_conditions":[1.1E1,1E0,1.1E0,7.1E-1,7E0,-1.05E0,1.21E0,6.3639015E-2,4.992326E-2,5.85392E-2,4.5446098E-2,-3.663842E-2,-2.4295483E-2,-3.4338187E-2,-3.7374422E-2],"split_indices":[0,2,3,3,0,3,3,0,0,0,0,0,0,0,0],"split_type":[0,0,0,0,0,0,0,0,0,0,0,0,0,0,0],"sum_hessian":[2.2757271E4,7.339745E3,1.5417526E4,4.9515127E3,2.3882324E3,1.1281871E4,4.1356562E3,4.6339443E3,3.1756808E2,1.3164017E3,1.0718306E3,3.1305356E3,8.151335E3,6.7025665E2,3.4653997E3],"tree_param":{"num_deleted":"0","num_feature":"6","num_nodes":"15","size_leaf_vector":"1"}},{"base_weights":[-4.4497486E-2,2.092028E0,-1.0880824E0,1.4142274E0,2.2975583E0,-9.1549206E-1,-1.1460055E0,3.0975046E-2,4.137721E-2,6.352803E-2,5.6552514E-2,-2.6681332E-2,-2.2467911E-2,-2.9943643E-2,-3.207681E-2],"categories":[],"categories_nodes":[],"categories_segments":[],"categories_sizes":[],"default_left":[1,0,0,1,0,0,0,0,0,0,0,0,0,0,0],"id":6,"left_children":[1,3,5,7,9,11,13,-1,-1,-1,-1,-1,-1,-1,-1],"loss_changes":[5.055505E4,1.0333047E3,1.5123828E2,4.755298E1,3.371875E1,2.1148682E1,1.5006836E1,0E0,0E0,0E0,0E0,0E0,0E0,0E0,0E0],"parents":[2147483647,0,0,1,1,2,2,3,3,4,4,5,5,6,6],"right_children":[2,4,6,8,10,12,14,-1,-1,-1,-1,-1,-1,-1,-1],"split_conditions":[1.1E1,1E0,1.3E1,4E0,9E0,1.2E1,1.4E1,3.0975046E-2,4.137721E-2,6.352803E-2,5.6552514E-2,-2.6681332E-2,-2.2467911E-2,-2.9943643E-2,-3.207681E-2],"split_indices":[0,5,0,0,0,0,0,0,0,0,0,0,0,0,0],"split_type":[0,0,0,0,0,0,0,0,0,0,0,0,0,0,0],"sum_hessian":[2.2672008E4,7.4397163E3,1.5232292E4,1.7328816E3,5.706835E3,3.8317708E3,1.14005205E4,4.657367E2,1.2671449E3,5.0303687E3,6.764664E2,2.2861858E3,1.5455851E3,4.273357E3,7.127164E3],"tree_param":{"num_deleted":"0","num_feature":"6","num_nodes":"15","size_leaf_vector":"1"}},{"base_weights":[-3.9008033E-2,-1.2274672E0,6.2329584E-1,-1.3316798E0,-6.6373104E-1,8.534242E-1,-1.10878E0,-3.695185E-2,-3.1991825E-2,-9.263204E-3,-2.473537E-2,3.5579395E-2,6.863583E-3,-1.5758911E-2,-3.5440676E-2],"categories":[],"categories_nodes":[],"categories_segments":[],"categories_sizes":[],"default_left":[0,0,1,0,0,0,0,0,0,0,0,0,0,0,0],"id":7,"left_children":[1,3,5,7,9,11,13,-1,-1,-1,-1,-1,-1,-1,-1],"loss_changes":[1.773231E4,4.7273242E2,5.767221E3,2.24375E1,9.878204E1,3.459708E3,1.702981E2,0E0,0E0,0E0,0E0,0E0,0E0,0E0,0E0],"parents":[2147483647,0,0,1,1,2,2,3,3,4,4,5,5,6,6],"right_children":[2,4,6,8,10,12,14,-1,-1,-1,-1,-1,-1,-1,-1],"split_conditions":[1.51E0,1.36E0,3.46E0,1.26E0,1E0,1E0,3.62E0,-3.695185E-2,-3.1991825E-2,-9.263204E-3,-2.473537E-2,3.5579395E-2,6.863583E-3,-1.5758911E-2,-3.5440676E-2],"split_indices":[4,4,4,4,2,2,4,0,0,0,0,0,0,0,0],"split_type":[0,0,0,0,0,0,0,0,0,0,0,0,0,0,0],"sum_hessian":[2.2526086E4,8.0607554E3,1.446533E4,6.8019756E3,1.2587795E3,1.2769276E4,1.6960536E3,5.9670903E3,8.348854E2,5.395339E2,7.192457E2,7.305563E3,5.4637134E3,4.4717062E2,1.2488829E3],"tree_param":{"num_deleted":"0","num_feature":"6","num_nodes":"15","size_leaf_vector":"1"}},{"base_weights":[-3.763236E-2,1.9875495E0,-1.0662498E0,1.3542949E0,2.179714E0,-1.3235002E0,-8.582094E-1,3.9012656E-2,-1.2030307E-2,2.445078E-2,6.0389567E-2,-3.661141E-2,-3.2480545E-2,-2.1368146E-2,-3.546357E-2],"categories":[],"categories_nodes":[],"categories_segments":[],"categories_sizes":[],"default_left":[0,0,0,0,0,0,1,0,0,0,0,0,0,0,0],"id":8,"left_children":[1,3,5,7,9,11,13,-1,-1,-1,-1,-1,-1,-1,-1],"loss_changes":[4.6817195E4,9.1824805E2,7.965156E2,2.3830371E2,2.4241016E2,1.4268555E1,2.7291455E2,0E0,0E0,0E0,0E0,0E0,0E0,0E0,0E0],"parents":[2147483647,0,0,1,1,2,2,3,3,4,4,5,5,6,6],"right_children":[2,4,6,8,10,12,14,-1,-1,-1,-1,-1,-1,-1,-1],"split_conditions":[1.1E1,1E0,1.36E0,3.49E0,1.57E0,1.26E0,3.62E0,3.9012656E-2,-1.2030307E-2,2.445078E-2,6.0389567E-2,-3.661141E-2,-3.2480545E-2,-2.1368146E-2,-3.546357E-2],"split_indices":[0,5,4,4,4,4,4,0,0,0,0,0,0,0,0],"split_type":[0,0,0,0,0,0,0,0,0,0,0,0,0,0,0],"sum_hessian":[2.2472348E4,7.569093E3,1.4903254E4,1.7640222E3,5.8050703E3,6.661136E3,8.242118E3,1.6934556E3,7.0566605E1,1.4524878E2,5.659822E3,5.868126E3,7.930104E2,7.0420063E3,1.2001113E3],"tree_param":{"num_deleted":"0","num_feature":"6","num_nodes":"15","size_leaf_vector":"1"}},{"base_weights":[-4.2275894E-2,-1.2014451E0,5.843905E-1,-1.2891449E0,-5.5331606E-1,7.994386E-1,-1.0906444E0,-3.6203034E-2,-2.952969E-2,-5.0034295E-3,-2.2904975E-2,3.3404667E-2,6.202572E-3,-1.6015729E-2,-3.4806523E-2],"categories":[],"categories_nodes":[],"categories_segments":[],"categories_sizes":[],"default_left":[1,0,0,0,0,0,0,0,0,0,0,0,0,0,0],"id":9,"left_children":[1,3,5,7,9,11,13,-1,-1,-1,-1,-1,-1,-1,-1],"loss_changes":[1.6164699E4,4.431416E2,5.203832E3,5.163086E1,9.846774E1,3.1084634E3,1.5212488E2,0E0,0E0,0E0,0E0,0E0,0E0,0E0,0E0],"parents":[2147483647,0,0,1,1,2,2,3,3,4,4,5,5,6,6],"right_children":[2,4,6,8,10,12,14,-1,-1,-1,-1,-1,-1,-1,-1],"split_conditions":[1.51E0,1.4E0,3.46E0,1.27E0,1E0,1E0,3.62E0,-3.6203034E-2,-2.952969E-2,-5.0034295E-3,-2.2904975E-2,3.3404667E-2,6.202572E-3,-1.6015729E-2,-3.4806523E-2],"split_indices":[4,4,4,4,2,2,4,0,0,0,0,0,0,0,0],"split_type":[0,0,0,0,0,0,0,0,0,0,0,0,0,0,0],"sum_hessian":[2.2250818E4,7.8076987E3,1.444312E4,6.876266E3,9.3143225E2,1.2800288E4,1.6428324E3,5.824621E3,1.0516455E3,4.0667874E2,5.2475354E2,7.348541E3,5.4517466E3,4.415521E2,1.2012803E3],"tree_param":{"num_deleted":"0","num_feature":"6","num_nodes":"15","size_leaf_vector":"1"}},{"base_weights":[-3.8859084E-2,1.8882779E0,-1.0455943E0,1.2814828E0,2.0717669E0,-8.876258E-1,-1.0994204E0,2.832117E-2,3.73574E-2,5.72641E-2,5.1133934E-2,-2.5828687E-2,-2.185773E-2,-2.8868616E-2,-3.069013E-2],"categories":[],"categories_nodes":[],"categories_segments":[],"categories_sizes":[],"default_left":[0,0,1,0,0,0,0,0,0,0,0,0,0,0,0],"id":10,"left_children":[1,3,5,7,9,11,13,-1,-1,-1,-1,-1,-1,-1,-1],"loss_changes":[4.309465E4,8.459824E2,1.2308301E2,3.626294E1,2.650586E1,1.8154541E1,1.015625E1,0E0,0E0,0E0,0E0,0E0,0E0,0E0,0E0],"parents":[2147483647,0,0,1,1,2,2,3,3,4,4,5,5,6,6],"right_children":[2,4,6,8,10,12,14,-1,-1,-1,-1,-1,-1,-1,-1],"split_conditions":[1.1E1,1E0,1.3E1,4E0,9E0,1.2E1,1.4E1,2.832117E-2,3.73574E-2,5.72641E-2,5.1133934E-2,-2.5828687E-2,-2.185773E-2,-2.8868616E-2,-3.069013E-2],"split_indices":[0,5,0,0,0,0,0,0,0,0,0,0,0,0,0],"split_type":[0,0,0,0,0,0,0,0,0,0,0,0,0,0,0],"sum_hessian":[2.221038E4,7.6210176E3,1.4589363E4,1.7713087E3,5.849709E3,3.712224E3,1.0877139E4,4.6986783E2,1.3014409E3,5.158217E3,6.914919E2,2.209464E3,1.5027599E3,4.0872622E3,6.7898765E3],"tree_param":{"num_deleted":"0","num_feature":"6","num_nodes":"15","size_leaf_vector":"1"}},{"base_weights":[-3.771926E-2,1.8285306E0,-1.0299242E0,8.384436E-1,1.9280981E0,-1.2912319E0,-8.2879704E-1,1.1656806E-2,2.983596E-2,5.4080844E-2,1.7972175E-2,-3.5683367E-2,-3.162965E-2,-3.5328276E-2,-1.7462924E-2],"categories":[],"categories_nodes":[],"categories_segments":[],"categories_sizes":[],"default_left":[0,0,0,0,0,0,0,0,0,0,0,0,0,0,0],"id":11,"left_children":[1,3,5,7,9,11,13,-1,-1,-1,-1,-1,-1,-1,-1],"loss_changes":[4.091248E4,7.5442773E2,7.570625E2,7.31326E1,4.6993164E2,1.1860352E1,7.166279E2,0E0,0E0,0E0,0E0,0E0,0E0,0E0,0E0],"parents":[2147483647,0,0,1,1,2,2,3,3,4,4,5,5,6,6],"right_children":[2,4,6,8,10,12,14,-1,-1,-1,-1,-1,-1,-1,-1],"split_conditions":[1.1E1,1.62E0,1.35E0,1.51E0,3.36E0,1.26E0,-1.05E0,1.1656806E-2,2.983596E-2,5.4080844E-2,1.7972175E-2,-3.5683367E-2,-3.162965E-2,-3.5328276E-2,-1.7462924E-2],"split_indices":[0,4,4,4,4,4,3,0,0,0,0,0,0,0,0],"split_type":[0,0,0,0,0,0,0,0,0,0,0,0,0,0,0],"sum_hessian":[2.209251E4,7.66829E3,1.442422E4,7.01554E2,6.966736E3,6.2711772E3,8.1530425E3,2.692654E2,4.322886E2,6.6856807E3,2.810554E2,5.5832866E3,6.878905E2,2.352616E3,5.800427E3],"tree_param":{"num_deleted":"0","num_feature":"6","num_nodes":"15","size_leaf_vector":"1"}},{"base_weights":[-3.7611704E-2,-7.686033E-1,1.9443413E0,-1.2571696E0,-4.3032295E-1,1.1152008E0,1.9948771E0,-3.535004E-2,-2.901325E-2,-8.327529E-3,-3.287592E-2,1.7170213E-2,3.8681358E-2,5.5237718E-2,3.574194E-2],"categories":[],"categories_nodes":[],"categories_segments":[],"categories_sizes":[],"default_left":[0,0,0,0,1,0,0,0,0,0,0,0,0,0,0],"id":12,"left_children":[1,3,5,7,9,11,13,-1,-1,-1,-1,-1,-1,-1,-1],"loss_changes":[3.1699166E4,2.6412217E3,2.4480078E2,4.682129E1,9.15402E2,4.9159363E1,1.0728906E2,0E0,0E0,0E0,0E0,0E0,0E0,0E0,0E0],"parents":[2147483647,0,0,1,1,2,2,3,3,4,4,5,5,6,6],"right_children":[2,4,6,8,10,12,14,-1,-1,-1,-1,-1,-1,-1,-1],"split_conditions":[1E0,1.4E0,1.65E0,1.26E0,3.55E0,1.56E0,3.28E0,-3.535004E-2,-2.901325E-2,-8.327529E-3,-3.287592E-2,1.7170213E-2,3.8681358E-2,5.5237718E-2,3.574194E-2],"split_indices":[5,4,4,4,4,4,4,0,0,0,0,0,0,0,0],"split_type":[0,0,0,0,0,0,0,0,0,0,0,0,0,0,0],"sum_hessian":[2.1877705E4,1.5983296E4,5.894409E3,6.537991E3,9.445305E3,3.3994803E2,5.554461E3,5.4644233E3,1.0735679E3,8.131378E3,1.3139266E3,1.3143655E2,2.0851146E2,5.328058E3,2.2640323E2],"tree_param":{"num_deleted":"0","num_feature":"6","num_nodes":"15","size_leaf_vector":"1"}},{"base_weights":[-3.857067E-2,1.7258722E0,-1.0068241E0,1.1976212E0,1.8860748E0,-8.4452176E-1,-1.0630594E0,2.6229685E-2,3.4996916E-2,5.229394E-2,4.5484524E-2,-2.468018E-2,-2.0639263E-2,-2.773033E-2,-2.978689E-2],"categories":[],"categories_nodes":[],"categories_segments":[],"categories_sizes":[],"default_left":[1,0,0,0,0,0,0,0,0,0,0,0,0,0,0],"id":13,"left_children":[1,3,5,7,9,11,13,-1,-1,-1,-1,-1,-1,-1,-1],"loss_changes":[3.7161406E4,6.499746E2,1.2728906E2,3.4712402E1,3.553711E1,1.8402344E1,1.2763672E1,0E0,0E0,0E0,0E0,0E0,0E0,0E0,0E0],"parents":[2147483647,0,0,1,1,2,2,3,3,4,4,5,5,6,6],"right_children":[2,4,6,8,10,12,14,-1,-1,-1,-1,-1,-1,-1,-1],"split_conditions":[1.1E1,1E0,1.3E1,4E0,9E0,1.2E1,1.4E1,2.6229685E-2,3.4996916E-2,5.229394E-2,4.5484524E-2,-2.468018E-2,-2.0639263E-2,-2.773033E-2,-2.978689E-2],"split_indices":[0,5,0,0,0,0,0,0,0,0,0,0,0,0,0],"split_type":[0,0,0,0,0,0,0,0,0,0,0,0,0,0,0],"sum_hessian":[2.1749797E4,7.7061465E3,1.4043651E4,1.7951855E3,5.910961E3,3.6179138E3,1.0425737E4,4.7587766E2,1.3193079E3,5.197529E3,7.1343207E2,2.1537598E3,1.464154E3,3.9222844E3,6.503453E3],"tree_param":{"num_deleted":"0","num_feature":"6","num_nodes":"15","size_leaf_vector":"1"}},{"base_weights":[-3.5841275E-2,1.6817338E0,-9.9379885E-1,1.7367929E0,1.3466234E0,-8.879292E-1,-1.2751018E0,3.164101E-2,4.846714E-2,2.4276964E-2,4.0653396E-2,-3.4677953E-2,-2.0120798E-2,-3.1002793E-2,-3.5308674E-2],"categories":[],"categories_nodes":[],"categories_segments":[],"categories_sizes":[],"default_left":[0,0,1,0,0,0,0,0,0,0,0,0,0,0,0],"id":14,"left_children":[1,3,5,7,9,11,13,-1,-1,-1,-1,-1,-1,-1,-1],"loss_changes":[3.538049E4,1.3971484E2,4.0997168E2,1.464414E2,6.989636E1,5.777202E2,8.251953E0,0E0,0E0,0E0,0E0,0E0,0E0,0E0,0E0],"parents":[2147483647,0,0,1,1,2,2,3,3,4,4,5,5,6,6],"right_children":[2,4,6,8,10,12,14,-1,-1,-1,-1,-1,-1,-1,-1],"split_conditions":[1.1E1,6E-1,1.09E0,-7.3E-1,1E0,-1.05E0,1.17E0,3.164101E-2,4.846714E-2,2.4276964E-2,4.0653396E-2,-3.4677953E-2,-2.0120798E-2,-3.1002793E-2,-3.5308674E-2],"split_indices":[0,3,3,3,1,3,3,0,0,0,0,0,0,0,0],"split_type":[0,0,0,0,0,0,0,0,0,0,0,0,0,0,0],"sum_hessian":[2.1501121E4,7.6980703E3,1.3803052E4,6.6081587E3,1.0899114E3,1.0031724E4,3.771328E3,4.1896365E2,6.1891953E3,2.6112488E2,8.2878656E2,2.833651E3,7.1980728E3,4.4972507E2,3.3216028E3],"tree_param":{"num_deleted":"0","num_feature":"6","num_nodes":"15","size_leaf_vector":"1"}},{"base_weights":[-3.6058154E-2,1.6297238E0,-9.816935E-1,7.0102715E-1,1.7239196E0,-1.2493505E0,-7.7633375E-1,8.909565E-3,2.5592789E-2,4.7924463E-2,-8.733632E-3,-3.4625273E-2,-3.0250456E-2,-1.9152323E-2,-3.3624534E-2],"categories":[],"categories_nodes":[],"categories_segments":[],"categories_sizes":[],"default_left":[0,0,0,0,0,0,1,0,0,0,0,0,0,0,0],"id":15,"left_children":[1,3,5,7,9,11,13,-1,-1,-1,-1,-1,-1,-1,-1],"loss_changes":[3.357675E4,6.740215E2,7.4639355E2,6.2847748E1,4.5734766E2,1.4592773E1,2.6087256E2,0E0,0E0,0E0,0E0,0E0,0E0,0E0,0E0],"parents":[2147483647,0,0,1,1,2,2,3,3,4,4,5,5,6,6],"right_children":[2,4,6,8,10,12,14,-1,-1,-1,-1,-1,-1,-1,-1],"split_conditions":[1.1E1,1.62E0,1.36E0,1.51E0,3.49E0,1.26E0,3.62E0,8.909565E-3,2.5592789E-2,4.7924463E-2,-8.733632E-3,-3.4625273E-2,-3.0250456E-2,-1.9152323E-2,-3.3624534E-2],"split_indices":[0,4,4,4,4,4,4,0,0,0,0,0,0,0,0],"split_type":[0,0,0,0,0,0,0,0,0,0,0,0,0,0,0],"sum_hessian":[2.131355E4,7.717711E3,1.359584E4,7.1148413E2,7.0062266E3,5.900411E3,7.6954287E3,2.763523E2,4.351318E2,6.8987163E3,1.0751048E2,5.1858574E3,7.1455396E2,6.6141953E3,1.0812336E3],"tree_param":{"num_deleted":"0","num_feature":"6","num_nodes":"15","size_leaf_vector":"1"}},{"base_weights":[-3.4207698E-2,1.5911918E0,-9.6935886E-1,1.0826511E0,1.7476488E0,-7.710938E-1,-1.0922502E0,3.507645E-2,2.1514997E-2,4.843154E-2,4.237261E-2,-1.9010257E-2,-2.397572E-2,-2.7691962E-2,-3.19733E-2],"categories":[],"categories_nodes":[],"categories_segments":[],"categories_sizes":[],"default_left":[0,0,0,0,0,1,0,0,0,0,0,0,0,0,0],"id":16,"left_children":[1,3,5,7,9,11,13,-1,-1,-1,-1,-1,-1,-1,-1],"loss_changes":[3.2118504E4,6.121289E2,3.2597754E2,1.07360596E2,2.8050781E1,4.0510498E1,4.972754E1,0E0,0E0,0E0,0E0,0E0,0E0,0E0,0E0],"parents":[2147483647,0,0,1,1,2,2,3,3,4,4,5,5,6,6],"right_children":[2,4,6,8,10,12,14,-1,-1,-1,-1,-1,-1,-1,-1],"split_conditions":[1.1E1,1E0,1E0,1E0,9E0,1.4E1,2E0,3.507645E-2,2.1514997E-2,4.843154E-2,4.237261E-2,-1.9010257E-2,-2.397572E-2,-2.7691962E-2,-3.19733E-2],"split_indices":[0,5,2,2,0,0,2,0,0,0,0,0,0,0,0],"split_type":[0,0,0,0,0,0,0,0,0,0,0,0,0,0,0],"sum_hessian":[2.112866E4,7.7162446E3,1.3412416E4,1.8172987E3,5.898946E3,5.1350806E3,8.277336E3,1.0748241E3,7.4247455E2,5.1811675E3,7.177786E2,3.033393E3,2.1016873E3,4.1842163E3,4.0931191E3],"tree_param":{"num_deleted":"0","num_feature":"6","num_nodes":"15","size_leaf_vector":"1"}},{"base_weights":[-3.5401598E-2,-7.1756876E-1,1.7048498E0,-1.2135406E0,-3.8664967E-1,9.3763363E-1,1.7524123E0,-3.4045465E-2,-2.6831202E-2,-7.2361194E-3,-3.1695694E-2,1.3636963E-2,3.3319067E-2,4.858685E-2,3.0501105E-2],"categories":[],"categories_nodes":[],"categories_segments":[],"categories_sizes":[],"default_left":[0,0,0,0,1,0,0,0,0,0,0,0,0,0,0],"id":17,"left_children":[1,3,5,7,9,11,13,-1,-1,-1,-1,-1,-1,-1,-1],"loss_changes":[2.4837484E4,2.4663955E3,2.1335156E2,4.561914E1,8.485471E2,4.2302002E1,9.545703E1,0E0,0E0,0E0,0E0,0E0,0E0,0E0,0E0],"parents":[2147483647,0,0,1,1,2,2,3,3,4,4,5,5,6,6],"right_children":[2,4,6,8,10,12,14,-1,-1,-1,-1,-1,-1,-1,-1],"split_conditions":[1E0,1.4E0,1.65E0,1.29E0,3.55E0,1.56E0,3.28E0,-3.4045465E-2,-2.6831202E-2,-7.2361194E-3,-3.1695694E-2,1.3636963E-2,3.3319067E-2,4.858685E-2,3.0501105E-2],"split_indices":[5,4,4,4,4,4,4,0,0,0,0,0,0,0,0],"split_type":[0,0,0,0,0,0,0,0,0,0,0,0,0,0,0],"sum_hessian":[2.0920045E4,1.5029261E4,5.890784E3,6.0135947E3,9.015666E3,3.4508173E2,5.5457026E3,5.2410273E3,7.725673E2,7.7940586E3,1.2216077E3,1.3655429E2,2.0852745E2,5.3123965E3,2.3330591E2],"tree_param":{"num_deleted":"0","num_feature":"6","num_nodes":"15","size_leaf_vector":"1"}},{"base_weights":[-3.58848E-2,2.536537E-1,-1.1558038E0,-1.1581616E0,5.873981E-1,-6.262551E-1,-1.2318333E0,-3.386267E-2,-1.8667355E-2,2.7004095E-2,1.8863709E-3,-3.103376E-2,-1.2636137E-2,-2.9043155E-2,-3.450659E-2],"categories":[],"categories_nodes":[],"categories_segments":[],"categories_sizes":[],"default_left":[1,0,0,0,0,0,0,0,0,0,0,0,0,0,0],"id":18,"left_children":[1,3,5,7,9,11,13,-1,-1,-1,-1,-1,-1,-1,-1],"loss_changes":[6.72055E3,7.760311E3,1.7064502E2,1.2231055E2,2.7749155E3,4.4225967E1,1.888086E1,0E0,0E0,0E0,0E0,0E0,0E0,0E0,0E0],"parents":[2147483647,0,0,1,1,2,2,3,3,4,4,5,5,6,6],"right_children":[2,4,6,8,10,12,14,-1,-1,-1,-1,-1,-1,-1,-1],"split_conditions":[9.7E-1,-9.5E-1,1.06E0,-1.05E0,1E0,1E0,1.17E0,-3.386267E-2,-1.8667355E-2,2.7004095E-2,1.8863709E-3,-3.103376E-2,-1.2636137E-2,-2.9043155E-2,-3.450659E-2],"split_indices":[3,3,3,3,2,1,3,0,0,0,0,0,0,0,0],"split_type":[0,0,0,0,0,0,0,0,0,0,0,0,0,0,0],"sum_hessian":[2.0723924E4,1.6467316E4,4.2566074E3,3.148016E3,1.33193E4,5.355705E2,3.7210369E3,2.680308E3,4.677081E2,7.501024E3,5.818276E3,1.2831204E2,4.0725845E2,6.075738E2,3.113463E3],"tree_param":{"num_deleted":"0","num_feature":"6","num_nodes":"15","size_leaf_vector":"1"}},{"base_weights":[-3.3959854E-2,-6.992737E-1,1.6505159E0,-1.1992972E0,-3.6957857E-1,8.9935064E-1,1.6968182E0,-3.388975E-2,-2.6965255E-2,-2.7400788E-3,-3.3037905E-2,2.8397234E-2,3.1238534E-3,4.6826147E-2,2.0989362E-2],"categories":[],"categories_nodes":[],"categories_segments":[],"categories_sizes":[],"default_left":[0,0,0,0,1,0,0,0,0,0,0,0,0,0,0],"id":19,"left_children":[1,3,5,7,9,11,13,-1,-1,-1,-1,-1,-1,-1,-1],"loss_changes":[2.3111633E4,2.4366768E3,2.0155957E2,5.1322266E1,2.0167284E3,3.7647583E1,9.4375E1,0E0,0E0,0E0,0E0,0E0,0E0,0E0,0E0],"parents":[2147483647,0,0,1,1,2,2,3,3,4,4,5,5,6,6],"right_children":[2,4,6,8,10,12,14,-1,-1,-1,-1,-1,-1,-1,-1],"split_conditions":[1E0,1.4E0,1.65E0,1.26E0,1.06E0,5.4E-1,3.38E0,-3.388975E-2,-2.6965255E-2,-2.7400788E-3,-3.3037905E-2,2.8397234E-2,3.1238534E-3,4.6826147E-2,2.0989362E-2],"split_indices":[5,4,4,4,3,3,4,0,0,0,0,0,0,0,0],"split_type":[0,0,0,0,0,0,0,0,0,0,0,0,0,0,0],"sum_hessian":[2.0620373E4,1.4782389E4,5.8379844E3,5.8728486E3,8.90954E3,3.401498E2,5.4978345E3,4.8889854E3,9.8386316E2,6.749752E3,2.159788E3,2.8806146E2,5.2088345E1,5.388064E3,1.0977046E2],"tree_param":{"num_deleted":"0","num_feature":"6","num_nodes":"15","size_leaf_vector":"1"}},{"base_weights":[-3.3531968E-2,2.4308191E-1,-1.1352124E0,-1.141511E0,5.647341E-1,-6.1130685E-1,-1.2114855E0,-3.3513606E-2,-1.7936114E-2,2.5827631E-2,1.9348287E-3,-3.0804668E-2,-1.2160823E-2,-2.8101368E-2,-3.3919677E-2],"categories":[],"categories_nodes":[],"categories_segments":[],"categories_sizes":[],"default_left":[0,0,1,0,0,0,0,0,0,0,0,0,0,0,0],"id":20,"left_children":[1,3,5,7,9,11,13,-1,-1,-1,-1,-1,-1,-1,-1],"loss_changes":[6.2379185E3,7.287413E3,1.6341846E2,1.2818774E2,2.501627E3,4.4438293E1,1.9091797E1,0E0,0E0,0E0,0E0,0E0,0E0,0E0,0E0],"parents":[2147483647,0,0,1,1,2,2,3,3,4,4,5,5,6,6],"right_children":[2,4,6,8,10,12,14,-1,-1,-1,-1,-1,-1,-1,-1],"split_conditions":[9.7E-1,-9.5E-1,1.06E0,-1.05E0,1E0,1E0,1.16E0,-3.3513606E-2,-1.7936114E-2,2.5827631E-2,1.9348287E-3,-3.0804668E-2,-1.2160823E-2,-2.8101368E-2,-3.3919677E-2],"split_indices":[3,3,3,3,2,1,3,0,0,0,0,0,0,0,0],"split_type":[0,0,0,0,0,0,0,0,0,0,0,0,0,0,0],"sum_hessian":[2.0467727E4,1.6360622E4,4.1071045E3,3.0837366E3,1.3276886E4,5.230924E2,3.584012E3,2.6159644E3,4.677722E2,7.489812E3,5.7870737E3,1.2553857E2,3.9755386E2,5.3011224E2,3.0538997E3],"tree_param":{"num_deleted":"0","num_feature":"6","num_nodes":"15","size_leaf_vector":"1"}},{"base_weights":[-3.3379067E-2,-6.8264335E-1,1.5987799E0,-5.179254E-1,-1.2000391E0,1.6244309E0,1.4214019E0,-3.2569256E-2,-8.017096E-3,-2.7491705E-2,-3.3666834E-2,2.9377148E-2,4.4466652E-2,4.0422786E-2,2.26495E-2],"categories":[],"categories_nodes":[],"categories_segments":[],"categories_sizes":[],"default_left":[0,1,0,0,0,0,0,0,0,0,0,0,0,0,0],"id":21,"left_children":[1,3,5,7,9,11,13,-1,-1,-1,-1,-1,-1,-1,-1],"loss_changes":[2.1515557E4,1.2372856E3,2.3980469E1,1.6680793E3,2.1353516E1,1.1229492E1,2.4780518E1,0E0,0E0,0E0,0E0,0E0,0E0,0E0,0E0],"parents":[2147483647,0,0,1,1,2,2,3,3,4,4,5,5,6,6],"right_children":[2,4,6,8,10,12,14,-1,-1,-1,-1,-1,-1,-1,-1],"split_conditions":[1E0,1.06E0,5.3E-1,-1.01E0,1.16E0,-6.9E-1,2E0,-3.2569256E-2,-8.017096E-3,-2.7491705E-2,-3.3666834E-2,2.9377148E-2,4.4466652E-2,4.0422786E-2,2.26495E-2],"split_indices":[5,3,3,3,3,3,2,0,0,0,0,0,0,0,0],"split_type":[0,0,0,0,0,0,0,0,0,0,0,0,0,0,0],"sum_hessian":[2.0301365E4,1.4524269E4,5.777096E3,1.1018442E4,3.5058267E3,5.040082E3,7.3701447E2,2.74523E3,8.273212E3,5.2242303E2,2.9834036E3,4.479201E1,4.99529E3,6.682222E2,6.879224E1],"tree_param":{"num_deleted":"0","num_feature":"6","num_nodes":"15","size_leaf_vector":"1"}},{"base_weights":[-3.2030776E-2,-1.1382128E0,4.5192742E-1,-1.2076739E0,-7.140312E-1,6.196457E-1,-1.0063328E0,-3.3501733E-2,-2.8309502E-2,-1.2976019E-2,-2.4398783E-2,2.586879E-2,4.627802E-3,-1.4386137E-2,-3.246306E-2],"categories":[],"categories_nodes":[],"categories_segments":[],"categories_sizes":[],"default_left":[0,0,1,0,0,0,0,0,0,0,0,0,0,0,0],"id":22,"left_children":[1,3,5,7,9,11,13,-1,-1,-1,-1,-1,-1,-1,-1],"loss_changes":[1.0768846E4,1.7952197E2,3.4231182E3,1.6421387E1,3.6655487E1,1.8533564E3,1.2601672E2,0E0,0E0,0E0,0E0,0E0,0E0,0E0,0E0],"parents":[2147483647,0,0,1,1,2,2,3,3,4,4,5,5,6,6],"right_children":[2,4,6,8,10,12,14,-1,-1,-1,-1,-1,-1,-1,-1],"split_conditions":[1.46E0,1.34E0,3.46E0,1.26E0,1E0,1E0,3.62E0,-3.3501733E-2,-2.8309502E-2,-1.2976019E-2,-2.4398783E-2,2.586879E-2,4.627802E-3,-1.4386137E-2,-3.246306E-2],"split_indices":[4,4,4,4,2,2,4,0,0,0,0,0,0,0,0],"split_type":[0,0,0,0,0,0,0,0,0,0,0,0,0,0,0],"sum_hessian":[2.0113717E4,6.121186E3,1.3992531E4,5.2582793E3,8.629068E2,1.25497295E4,1.442802E3,4.707274E3,5.5100494E2,3.7244226E2,4.904645E2,7.257813E3,5.291916E3,3.997844E2,1.0430176E3],"tree_param":{"num_deleted":"0","num_feature":"6","num_nodes":"15","size_leaf_vector":"1"}},{"base_weights":[-3.3202432E-2,-6.7051965E-1,1.5520283E0,-5.0648046E-1,-1.1907687E0,1.5788164E0,1.3678238E0,-3.2789495E-2,-7.813736E-3,-2.6203806E-2,-3.326834E-2,3.747075E-2,4.3461364E-2,3.1291436E-2,3.945656E-2],"categories":[],"categories_nodes":[],"categories_segments":[],"categories_sizes":[],"default_left":[0,1,0,0,0,0,0,0,0,0,0,0,0,0,0],"id":23,"left_children":[1,3,5,7,9,11,13,-1,-1,-1,-1,-1,-1,-1,-1],"loss_changes":[2.022523E4,1.2179502E3,2.6166016E1,1.6609248E3,2.1007812E1,1.171582E1,1.1017212E1,0E0,0E0,0E0,0E0,0E0,0E0,0E0,0E0],"parents":[2147483647,0,0,1,1,2,2,3,3,4,4,5,5,6,6],"right_children":[2,4,6,8,10,12,14,-1,-1,-1,-1,-1,-1,-1,-1],"split_conditions":[1E0,1.06E0,5.3E-1,-1.03E0,1.13E0,-6.2E-1,1E0,-3.2789495E-2,-7.813736E-3,-2.6203806E-2,-3.326834E-2,3.747075E-2,4.3461364E-2,3.1291436E-2,3.945656E-2],"split_indices":[5,3,3,3,3,3,1,0,0,0,0,0,0,0,0],"split_type":[0,0,0,0,0,0,0,0,0,0,0,0,0,0,0],"sum_hessian":[2.0017105E4,1.4277599E4,5.739508E3,1.0856439E4,3.4211592E3,5.004196E3,7.3531195E2,2.6115713E3,8.244867E3,3.7507437E2,3.0460847E3,3.13715E2,4.690481E3,1.9520546E2,5.401065E2],"tree_param":{"num_deleted":"0","num_feature":"6","num_nodes":"15","size_leaf_vector":"1"}},{"base_weights":[-3.389062E-2,1.4024115E0,-9.0761566E-1,6.0281175E-1,1.4854215E0,-1.1956809E0,-6.965878E-1,1.9488914E-2,2.1210097E-4,4.146286E-2,-3.1319056E-3,-3.3254772E-2,-2.8599447E-2,-1.6911738E-2,-3.2190565E-2],"categories":[],"categories_nodes":[],"categories_segments":[],"categories_sizes":[],"default_left":[0,0,0,0,0,0,1,0,0,0,0,0,0,0,0],"id":24,"left_children":[1,3,5,7,9,11,13,-1,-1,-1,-1,-1,-1,-1,-1],"loss_changes":[2.4860152E4,4.9643457E2,7.479258E2,4.673709E1,3.657295E2,1.6184082E1,2.6360474E2,0E0,0E0,0E0,0E0,0E0,0E0,0E0,0E0],"parents":[2147483647,0,0,1,1,2,2,3,3,4,4,5,5,6,6],"right_children":[2,4,6,8,10,12,14,-1,-1,-1,-1,-1,-1,-1,-1],"split_conditions":[1.1E1,1.62E0,1.36E0,2E0,3.46E0,1.25E0,3.62E0,1.9488914E-2,2.1210097E-4,4.146286E-2,-3.1319056E-3,-3.3254772E-2,-2.8599447E-2,-1.6911738E-2,-3.2190565E-2],"split_indices":[0,4,4,2,4,4,4,0,0,0,0,0,0,0,0],"split_type":[0,0,0,0,0,0,0,0,0,0,0,0,0,0,0],"sum_hessian":[1.9807926E4,7.491753E3,1.2316174E4,7.053816E2,6.7863716E3,5.205585E3,7.1105884E3,5.941437E2,1.1123793E2,6.6466177E3,1.3975398E2,4.5071616E3,6.984236E2,6.1345723E3,9.760164E2],"tree_param":{"num_deleted":"0","num_feature":"6","num_nodes":"15","size_leaf_vector":"1"}},{"base_weights":[-3.199162E-2,-6.50204E-1,1.4956635E0,-1.1649618E0,-3.2484102E-1,7.332389E-1,1.5434331E0,-3.2989454E-2,-2.5924608E-2,-5.680139E-3,-3.143137E-2,4.910594E-3,2.5283255E-2,4.29012E-2,2.45768E-2],"categories":[],"categories_nodes":[],"categories_segments":[],"categories_sizes":[],"default_left":[0,0,0,0,1,0,0,0,0,0,0,0,0,0,0],"id":25,"left_children":[1,3,5,7,9,11,13,-1,-1,-1,-1,-1,-1,-1,-1],"loss_changes":[1.8516402E4,2.3373062E3,2.0458984E2,4.9645996E1,8.2524805E2,3.5614822E1,9.543848E1,0E0,0E0,0E0,0E0,0E0,0E0,0E0,0E0],"parents":[2147483647,0,0,1,1,2,2,3,3,4,4,5,5,6,6],"right_children":[2,4,6,8,10,12,14,-1,-1,-1,-1,-1,-1,-1,-1],"split_conditions":[1E0,1.4E0,1.65E0,1.26E0,3.59E0,1.53E0,3.28E0,-3.2989454E-2,-2.5924608E-2,-5.680139E-3,-3.143137E-2,4.910594E-3,2.5283255E-2,4.29012E-2,2.45768E-2],"split_indices":[5,4,4,4,4,4,4,0,0,0,0,0,0,0,0],"split_type":[0,0,0,0,0,0,0,0,0,0,0,0,0,0,0],"sum_hessian":[1.9604176E4,1.3956731E4,5.6474443E3,5.4041807E3,8.552551E3,3.3394067E2,5.3135034E3,4.4884307E3,9.1575037E2,7.4954043E3,1.0571467E3,8.687851E1,2.4706216E2,5.0877974E3,2.2570628E2],"tree_param":{"num_deleted":"0","num_feature":"6","num_nodes":"15","size_leaf_vector":"1"}},{"base_weights":[-2.9865142E-2,-6.3831306E-1,1.4681898E0,-4.7216022E-1,-1.1747458E0,1.493874E0,1.2689193E0,-3.17192E-2,-6.7807534E-3,-2.5542308E-2,-3.2857955E-2,3.553634E-2,4.1157212E-2,2.7688315E-2,3.698257E-2],"categories":[],"categories_nodes":[],"categories_segments":[],"categories_sizes":[],"default_left":[0,1,0,0,0,0,0,0,0,0,0,0,0,0,0],"id":26,"left_children":[1,3,5,7,9,11,13,-1,-1,-1,-1,-1,-1,-1,-1],"loss_changes":[1.7680504E4,1.2289521E3,2.6779297E1,1.6257625E3,2.1533203E1,1.1364258E1,1.2774414E1,0E0,0E0,0E0,0E0,0E0,0E0,0E0,0E0],"parents":[2147483647,0,0,1,1,2,2,3,3,4,4,5,5,6,6],"right_children":[2,4,6,8,10,12,14,-1,-1,-1,-1,-1,-1,-1,-1],"split_conditions":[1E0,1.06E0,5.5E-1,-1.01E0,1.13E0,-6.1E-1,1E0,-3.17192E-2,-6.7807534E-3,-2.5542308E-2,-3.2857955E-2,3.553634E-2,4.1157212E-2,2.7688315E-2,3.698257E-2],"split_indices":[5,3,3,3,3,3,1,0,0,0,0,0,0,0,0],"split_type":[0,0,0,0,0,0,0,0,0,0,0,0,0,0,0],"sum_hessian":[1.9395371E4,1.3793568E4,5.6018022E3,1.0532995E4,3.2605732E3,4.956464E3,6.453386E2,2.5782107E3,7.954784E3,3.572996E2,2.9032737E3,3.4352573E2,4.612938E3,1.6624635E2,4.790923E2],"tree_param":{"num_deleted":"0","num_feature":"6","num_nodes":"15","size_leaf_vector":"1"}},{"base_weights":[-2.797878E-2,1.336688E0,-8.753459E-1,4.1344008E-1,1.4032246E0,-1.1796556E0,-6.621748E-1,1.7312653E-2,3.7193277E-3,3.9555747E-2,9.40838E-3,-3.2718215E-2,-2.8086457E-2,-1.600224E-2,-3.1585872E-2],"categories":[],"categories_nodes":[],"categories_segments":[],"categories_sizes":[],"default_left":[0,0,0,0,0,0,1,0,0,0,0,0,0,0,0],"id":27,"left_children":[1,3,5,7,9,11,13,-1,-1,-1,-1,-1,-1,-1,-1],"loss_changes":[2.2198174E4,4.511494E2,7.67459E2,3.0259796E1,3.3335254E2,1.2760254E1,2.6107544E2,0E0,0E0,0E0,0E0,0E0,0E0,0E0,0E0],"parents":[2147483647,0,0,1,1,2,2,3,3,4,4,5,5,6,6],"right_children":[2,4,6,8,10,12,14,-1,-1,-1,-1,-1,-1,-1,-1],"split_conditions":[1.1E1,1.57E0,1.35E0,1E0,3.36E0,1.26E0,3.62E0,1.7312653E-2,3.7193277E-3,3.9555747E-2,9.40838E-3,-3.2718215E-2,-2.8086457E-2,-1.600224E-2,-3.1585872E-2],"split_indices":[0,4,4,2,4,4,4,0,0,0,0,0,0,0,0],"split_type":[0,0,0,0,0,0,0,0,0,0,0,0,0,0,0],"sum_hessian":[1.9194352E4,7.3525874E3,1.1841765E4,4.9475006E2,6.8578374E3,4.8762295E3,6.965535E3,2.7463766E2,2.2011241E2,6.5719756E3,2.858622E2,4.322781E3,5.534487E2,6.041451E3,9.240841E2],"tree_param":{"num_deleted":"0","num_feature":"6","num_nodes":"15","size_leaf_vector":"1"}},{"base_weights":[-2.8592559E-2,-6.16697E-1,1.4155556E0,-1.1467626E0,-2.9140022E-1,6.76774E-1,1.4665143E0,-3.252549E-2,-2.5329245E-2,-4.8353556E-3,-3.091155E-2,6.8358583E-3,2.5383571E-2,4.061643E-2,1.7206753E-2],"categories":[],"categories_nodes":[],"categories_segments":[],"categories_sizes":[],"default_left":[0,0,0,0,1,0,0,0,0,0,0,0,0,0,0],"id":28,"left_children":[1,3,5,7,9,11,13,-1,-1,-1,-1,-1,-1,-1,-1],"loss_changes":[1.6082169E4,2.3198418E3,2.0530371E2,4.9131348E1,8.012138E2,3.8136383E1,9.1427734E1,0E0,0E0,0E0,0E0,0E0,0E0,0E0,0E0],"parents":[2147483647,0,0,1,1,2,2,3,3,4,4,5,5,6,6],"right_children":[2,4,6,8,10,12,14,-1,-1,-1,-1,-1,-1,-1,-1],"split_conditions":[1E0,1.4E0,1.66E0,1.26E0,3.59E0,1.56E0,3.36E0,-3.252549E-2,-2.5329245E-2,-4.8353556E-3,-3.091155E-2,6.8358583E-3,2.5383571E-2,4.061643E-2,1.7206753E-2],"split_indices":[5,4,4,4,4,4,4,0,0,0,0,0,0,0,0],"split_type":[0,0,0,0,0,0,0,0,0,0,0,0,0,0,0],"sum_hessian":[1.8933543E4,1.3454857E4,5.478686E3,5.115961E3,8.3388955E3,3.5443912E2,5.124247E3,4.2414526E3,8.745084E2,7.3427505E3,9.961455E2,1.3281148E2,2.2162766E2,4.994708E3,1.2953903E2],"tree_param":{"num_deleted":"0","num_feature":"6","num_nodes":"15","size_leaf_vector":"1"}},{"base_weights":[-3.076176E-2,1.2925067E0,-8.585035E-1,6.499553E-1,1.3806032E0,-1.1670283E0,-6.468283E-1,2.1991441E-2,3.5799278E-3,3.9045442E-2,7.903383E-3,-3.240162E-2,-2.7552841E-2,-3.2127313E-2,-1.2153055E-2],"categories":[],"categories_nodes":[],"categories_segments":[],"categories_sizes":[],"default_left":[0,0,0,0,0,0,0,0,0,0,0,0,0,0,0],"id":29,"left_children":[1,3,5,7,9,11,13,-1,-1,-1,-1,-1,-1,-1,-1],"loss_changes":[2.0545965E4,4.0770703E2,7.528594E2,7.037137E1,3.452041E2,1.3649902E1,7.311997E2,0E0,0E0,0E0,0E0,0E0,0E0,0E0,0E0],"parents":[2147483647,0,0,1,1,2,2,3,3,4,4,5,5,6,6],"right_children":[2,4,6,8,10,12,14,-1,-1,-1,-1,-1,-1,-1,-1],"split_conditions":[1.1E1,1.66E0,1.35E0,5E-1,3.36E0,1.26E0,-1.05E0,2.1991441E-2,3.5799278E-3,3.9045442E-2,7.903383E-3,-3.240162E-2,-2.7552841E-2,-3.2127313E-2,-1.2153055E-2],"split_indices":[0,4,4,3,4,4,3,0,0,0,0,0,0,0,0],"split_type":[0,0,0,0,0,0,0,0,0,0,0,0,0,0,0],"sum_hessian":[1.8755865E4,7.2173286E3,1.1538536E4,8.7122614E2,6.3461025E3,4.693323E3,6.8452124E3,6.6964087E2,2.0158524E2,6.068207E3,2.7789554E2,4.1571987E3,5.361245E2,1.884194E3,4.9610186E3],"tree_param":{"num_deleted":"0","num_feature":"6","num_nodes":"15","size_leaf_vector":"1"}},{"base_weights":[-3.0573547E-2,1.2612706E0,-8.4607804E-1,5.8607936E-1,1.3498263E0,-1.1576854E0,-6.354128E-1,7.457839E-3,2.186315E-2,3.8496725E-2,1.4037593E-2,-3.2200474E-2,-2.7360532E-2,-1.5261644E-2,-3.1168487E-2],"categories":[],"categories_nodes":[],"categories_segments":[],"categories_sizes":[],"default_left":[0,0,0,0,0,0,1,0,0,0,0,0,0,0,0],"id":30,"left_children":[1,3,5,7,9,11,13,-1,-1,-1,-1,-1,-1,-1,-1],"loss_changes":[1.954046E4,4.283828E2,7.4566504E2,5.5858917E1,3.204336E2,1.4513672E1,2.6152222E2,0E0,0E0,0E0,0E0,0E0,0E0,0E0,0E0],"parents":[2147483647,0,0,1,1,2,2,3,3,4,4,5,5,6,6],"right_children":[2,4,6,8,10,12,14,-1,-1,-1,-1,-1,-1,-1,-1],"split_conditions":[1.1E1,1.65E0,1.35E0,1.53E0,3.28E0,1.25E0,3.62E0,7.457839E-3,2.186315E-2,3.8496725E-2,1.4037593E-2,-3.2200474E-2,-2.7360532E-2,-1.5261644E-2,-3.1168487E-2],"split_indices":[0,4,4,4,4,4,4,0,0,0,0,0,0,0,0],"split_type":[0,0,0,0,0,0,0,0,0,0,0,0,0,0,0],"sum_hessian":[1.854604E4,7.176759E3,1.1369281E4,8.330214E2,6.3437373E3,4.5841294E3,6.7851514E3,3.401561E2,4.9286536E2,5.914223E3,4.2951416E2,4.0083955E3,5.757341E2,5.8989854E3,8.861659E2],"tree_param":{"num_deleted":"0","num_feature":"6","num_nodes":"15","size_leaf_vector":"1"}},{"base_weights":[-2.6571004E-2,2.1162337E-1,-1.0903646E0,-1.0653715E0,4.886982E-1,-6.367583E-1,-1.1640544E0,-3.180303E-2,-1.448418E-2,1.7878782E-2,-1.0672897E-2,-2.979492E-2,-1.3635929E-2,-2.7020609E-2,-3.243305E-2],"categories":[],"categories_nodes":[],"categories_segments":[],"categories_sizes":[],"default_left":[1,0,0,0,0,0,0,0,0,0,0,0,0,0,0],"id":31,"left_children":[1,3,5,7,9,11,13,-1,-1,-1,-1,-1,-1,-1,-1],"loss_changes":[4.6501333E3,5.3058936E3,1.11483154E2,1.4205957E2,1.8032119E3,2.886734E1,1.0986572E1,0E0,0E0,0E0,0E0,0E0,0E0,0E0,0E0],"parents":[2147483647,0,0,1,1,2,2,3,3,4,4,5,5,6,6],"right_children":[2,4,6,8,10,12,14,-1,-1,-1,-1,-1,-1,-1,-1],"split_conditions":[1E0,-9.5E-1,1.09E0,-1.05E0,2E0,1E0,1.17E0,-3.180303E-2,-1.448418E-2,1.7878782E-2,-1.0672897E-2,-2.979492E-2,-1.3635929E-2,-2.7020609E-2,-3.243305E-2],"split_indices":[3,3,3,3,2,1,3,0,0,0,0,0,0,0,0],"split_type":[0,0,0,0,0,0,0,0,0,0,0,0,0,0,0],"sum_hessian":[1.8349799E4,1.4993419E4,3.3563804E3,2.6726667E3,1.2320752E4,4.7040268E2,2.8859778E3,2.251302E3,4.213648E2,1.0361891E4,1.9588618E3,1.0738544E2,3.6301724E2,3.5730203E2,2.5286758E3],"tree_param":{"num_deleted":"0","num_feature":"6","num_nodes":"15","size_leaf_vector":"1"}},{"base_weights":[-2.5501104E-2,-1.0711589E0,3.978571E-1,-1.1525439E0,-6.5704477E-1,-1.078039E0,6.578709E-1,-3.21374E-2,-2.7737897E-2,-1.2048469E-2,-3.157811E-2,-3.234692E-2,-1.6820742E-2,2.794658E-2,-2.8067222E-2],"categories":[],"categories_nodes":[],"categories_segments":[],"categories_sizes":[],"default_left":[0,0,0,0,0,0,1,0,0,0,0,0,0,0,0],"id":32,"left_children":[1,3,5,7,9,11,13,-1,-1,-1,-1,-1,-1,-1,-1],"loss_changes":[8.079344E3,1.765083E2,4.986055E3,1.3705078E1,9.285681E1,9.5486084E1,6.8180376E3,0E0,0E0,0E0,0E0,0E0,0E0,0E0,0E0],"parents":[2147483647,0,0,1,1,2,2,3,3,4,4,5,5,6,6],"right_children":[2,4,6,8,10,12,14,-1,-1,-1,-1,-1,-1,-1,-1],"split_conditions":[1.46E0,1.33E0,-9.8E-1,1.21E0,7.7E-1,-1.1E0,1E0,-3.21374E-2,-2.7737897E-2,-1.2048469E-2,-3.157811E-2,-3.234692E-2,-1.6820742E-2,2.794658E-2,-2.8067222E-2],"split_indices":[4,4,3,4,3,3,3,0,0,0,0,0,0,0,0],"split_type":[0,0,0,0,0,0,0,0,0,0,0,0,0,0,0],"sum_hessian":[1.8248695E4,5.2586816E3,1.2990015E4,4.3934604E3,8.652208E2,1.945242E3,1.1044772E4,3.7089077E3,6.845529E2,6.0579614E2,2.5942468E2,1.5778625E3,3.673794E2,9.075238E3,1.9695342E3],"tree_param":{"num_deleted":"0","num_feature":"6","num_nodes":"15","size_leaf_vector":"1"}},{"base_weights":[-2.7595052E-2,-5.829652E-1,1.3266039E0,-2.850092E-1,-8.0365115E-1,3.672457E-2,2.9400326E-2,-8.639699E-3,-7.165427E-3,-1.8213578E-2,-2.6183285E-2],"categories":[],"categories_nodes":[],"categories_segments":[],"categories_sizes":[],"default_left":[0,0,0,0,0,0,0,0,0,0,0],"id":33,"left_children":[1,3,5,7,9,-1,-1,-1,-1,-1,-1],"loss_changes":[1.3550597E4,8.3993896E2,2.3228516E1,3.7724304E0,1.5512207E2,0E0,0E0,0E0,0E0,0E0,0E0],"parents":[2147483647,0,0,1,1,2,2,3,3,4,4],"right_children":[2,4,6,8,10,-1,-1,-1,-1,-1,-1],"split_conditions":[1E0,1E0,2E0,1E0,2E0,3.672457E-2,2.9400326E-2,-8.639699E-3,-7.165427E-3,-1.8213578E-2,-2.6183285E-2],"split_indices":[5,2,2,1,2,0,0,0,0,0,0],"split_type":[0,0,0,0,0,0,0,0,0,0,0],"sum_hessian":[1.8015428E4,1.2776309E4,5.2391187E3,5.4373887E3,7.3389204E3,4.866452E3,3.7266638E2,2.2584465E3,3.178942E3,3.9144536E3,3.4244668E3],"tree_param":{"num_deleted":"0","num_feature":"6","num_nodes":"11","size_leaf_vector":"1"}},{"base_weights":[-2.9679615E-2,-5.737652E-1,1.3034937E0,-4.100753E-1,-1.1327997E0,1.3270375E0,1.034861E0,-3.0415911E-2,-5.3448207E-3,-2.501603E-2,-3.197021E-2,3.1498756E-2,3.6636107E-2,1.857797E-2,3.1379733E-2],"categories":[],"categories_nodes":[],"categories_segments":[],"categories_sizes":[],"default_left":[0,1,0,0,0,0,0,0,0,0,0,0,0,0,0],"id":34,"left_children":[1,3,5,7,9,11,13,-1,-1,-1,-1,-1,-1,-1,-1],"loss_changes":[1.2927095E4,1.1576958E3,3.1294922E1,1.4772577E3,2.2789307E1,1.0932617E1,1.6327667E1,0E0,0E0,0E0,0E0,0E0,0E0,0E0,0E0],"parents":[2147483647,0,0,1,1,2,2,3,3,4,4,5,5,6,6],"right_children":[2,4,6,8,10,12,14,-1,-1,-1,-1,-1,-1,-1,-1],"split_conditions":[1E0,1.06E0,6E-1,-1.01E0,1.16E0,-5.9E-1,1E0,-3.0415911E-2,-5.3448207E-3,-2.501603E-2,-3.197021E-2,3.1498756E-2,3.6636107E-2,1.857797E-2,3.1379733E-2],"split_indices":[5,3,3,3,3,3,1,0,0,0,0,0,0,0,0],"split_type":[0,0,0,0,0,0,0,0,0,0,0,0,0,0,0],"sum_hessian":[1.7819584E4,1.2655342E4,5.164242E3,9.790373E3,2.864969E3,4.7444814E3,4.19761E2,2.282719E3,7.507654E3,4.3663245E2,2.4283364E3,3.8945453E2,4.355027E3,1.0444071E2,3.1532028E2],"tree_param":{"num_deleted":"0","num_feature":"6","num_nodes":"15","size_leaf_vector":"1"}},{"base_weights":[-2.624784E-2,1.187546E0,-8.0715054E-1,5.5782115E-1,1.2771522E0,-1.1372123E0,-5.825796E-1,7.155243E-3,2.0362623E-2,3.6237385E-2,6.3976273E-3,-3.1742375E-2,-2.6677182E-2,-1.3630498E-2,-3.067941E-2],"categories":[],"categories_nodes":[],"categories_segments":[],"categories_sizes":[],"default_left":[0,0,0,0,0,0,1,0,0,0,0,0,0,0,0],"id":35,"left_children":[1,3,5,7,9,11,13,-1,-1,-1,-1,-1,-1,-1,-1],"loss_changes":[1.668998E4,3.8826465E2,7.935366E2,4.768814E1,3.1731348E2,1.6706055E1,2.8675464E2,0E0,0E0,0E0,0E0,0E0,0E0,0E0,0E0],"parents":[2147483647,0,0,1,1,2,2,3,3,4,4,5,5,6,6],"right_children":[2,4,6,8,10,12,14,-1,-1,-1,-1,-1,-1,-1,-1],"split_conditions":[1.1E1,1.66E0,1.36E0,1.53E0,3.36E0,1.25E0,3.62E0,7.155243E-3,2.0362623E-2,3.6237385E-2,6.3976273E-3,-3.1742375E-2,-2.6677182E-2,-1.3630498E-2,-3.067941E-2],"split_indices":[0,4,4,4,4,4,4,0,0,0,0,0,0,0,0],"split_type":[0,0,0,0,0,0,0,0,0,0,0,0,0,0,0],"sum_hessian":[1.7606148E4,6.892418E3,1.07137295E4,8.5948E2,6.032938E3,4.336347E3,6.377383E3,3.3522763E2,5.242524E2,5.754104E3,2.788336E2,3.729552E3,6.0679517E2,5.529604E3,8.4777875E2],"tree_param":{"num_deleted":"0","num_feature":"6","num_nodes":"15","size_leaf_vector":"1"}},{"base_weights":[-2.6397888E-2,-5.546711E-1,1.2699957E0,-2.650845E-1,-7.719025E-1,1.2892233E0,2.7869502E-2,-8.379492E-3,-6.4289686E-3,-1.7323015E-2,-2.540742E-2,3.5589382E-2,3.400732E-2],"categories":[],"categories_nodes":[],"categories_segments":[],"categories_sizes":[],"default_left":[0,0,0,0,0,0,0,0,0,0,0,0,0],"id":36,"left_children":[1,3,5,7,9,11,-1,-1,-1,-1,-1,-1,-1],"loss_changes":[1.1918308E4,7.776033E2,2.2800293E1,6.492737E0,1.5350977E2,1.3427734E0,0E0,0E0,0E0,0E0,0E0,0E0,0E0],"parents":[2147483647,0,0,1,1,2,2,3,3,4,4,5,5],"right_children":[2,4,6,8,10,12,-1,-1,-1,-1,-1,-1,-1],"split_conditions":[1E0,1E0,2E0,1E0,2E0,1E0,2.7869502E-2,-8.379492E-3,-6.4289686E-3,-1.7323015E-2,-2.540742E-2,3.5589382E-2,3.400732E-2],"split_indices":[5,2,2,1,2,2,0,0,0,0,0,0,0],"split_type":[0,0,0,0,0,0,0,0,0,0,0,0,0],"sum_hessian":[1.7400771E4,1.2363349E4,5.037424E3,5.300108E3,7.06324E3,4.6723584E3,3.6506522E2,2.1874417E3,3.1126665E3,3.7932124E3,3.2700276E3,3.4681562E3,1.2042023E3],"tree_param":{"num_deleted":"0","num_feature":"6","num_nodes":"13","size_leaf_vector":"1"}},{"base_weights":[-2.4177214E-2,-1.0444294E0,3.7744263E-1,-1.1281149E0,-5.916268E-1,5.1481044E-1,-9.7125393E-1,-3.143741E-2,-2.5408318E-2,-9.499408E-3,-2.1246973E-2,1.7653028E-2,-7.144431E-3,-1.4460613E-2,-3.0513804E-2],"categories":[],"categories_nodes":[],"categories_segments":[],"categories_sizes":[],"default_left":[1,0,0,0,0,0,0,0,0,0,0,0,0,0,0],"id":37,"left_children":[1,3,5,7,9,11,13,-1,-1,-1,-1,-1,-1,-1,-1],"loss_changes":[7.072221E3,1.8406592E2,2.2949624E3,1.8124512E1,3.4428802E1,1.1519082E3,7.356128E1,0E0,0E0,0E0,0E0,0E0,0E0,0E0,0E0],"parents":[2147483647,0,0,1,1,2,2,3,3,4,4,5,5,6,6],"right_children":[2,4,6,8,10,12,14,-1,-1,-1,-1,-1,-1,-1,-1],"split_conditions":[1.46E0,1.34E0,3.49E0,1.26E0,1E0,2E0,3.62E0,-3.143741E-2,-2.5408318E-2,-9.499408E-3,-2.1246973E-2,1.7653028E-2,-7.144431E-3,-1.4460613E-2,-3.0513804E-2],"split_indices":[4,4,4,4,2,2,4,0,0,0,0,0,0,0,0],"split_type":[0,0,0,0,0,0,0,0,0,0,0,0,0,0,0],"sum_hessian":[1.7257732E4,4.874141E3,1.2383592E4,4.112576E3,7.6156525E2,1.1239447E4,1.144145E3,3.6677322E3,4.448439E2,3.3177716E2,4.2978806E2,9.607248E3,1.6321985E3,2.865017E2,8.5764325E2],"tree_param":{"num_deleted":"0","num_feature":"6","num_nodes":"15","size_leaf_vector":"1"}},{"base_weights":[-2.7489103E-2,-5.4194236E-1,1.2459931E0,-1.0952474E0,-2.3486167E-1,4.791344E-1,1.2979767E0,-3.1300053E-2,-2.343282E-2,-3.261853E-3,-2.8845826E-2,3.1634553E-3,1.9987257E-2,3.6367267E-2,1.935427E-2],"categories":[],"categories_nodes":[],"categories_segments":[],"categories_sizes":[],"default_left":[0,0,0,0,1,0,0,0,0,0,0,0,0,0,0],"id":38,"left_children":[1,3,5,7,9,11,13,-1,-1,-1,-1,-1,-1,-1,-1],"loss_changes":[1.1224513E4,2.0731538E3,1.9589648E2,5.2108887E1,7.441041E2,2.8837418E1,9.260986E1,0E0,0E0,0E0,0E0,0E0,0E0,0E0,0E0],"parents":[2147483647,0,0,1,1,2,2,3,3,4,4,5,5,6,6],"right_children":[2,4,6,8,10,12,14,-1,-1,-1,-1,-1,-1,-1,-1],"split_conditions":[1E0,1.4E0,1.65E0,1.26E0,3.55E0,1.56E0,3.24E0,-3.1300053E-2,-2.343282E-2,-3.261853E-3,-2.8845826E-2,3.1634553E-3,1.9987257E-2,3.6367267E-2,1.935427E-2],"split_indices":[5,4,4,4,4,4,4,0,0,0,0,0,0,0,0],"split_type":[0,0,0,0,0,0,0,0,0,0,0,0,0,0,0],"sum_hessian":[1.7130781E4,1.220205E4,4.928732E3,4.3541235E3,7.847926E3,3.1354538E2,4.6151865E3,3.573053E3,7.810706E2,6.883082E3,9.648439E2,1.2936952E2,1.8417587E2,4.3591743E3,2.56012E2],"tree_param":{"num_deleted":"0","num_feature":"6","num_nodes":"15","size_leaf_vector":"1"}},{"base_weights":[-2.5338858E-2,-1.0202266E0,3.6240265E-1,-1.1207349E0,-5.7681036E-1,-1.0440204E0,6.0868436E-1,-3.1200929E-2,-2.5531145E-2,-8.995156E-3,-2.9253997E-2,-3.1658042E-2,-1.5224947E-2,2.5691548E-2,-2.8770678E-2],"categories":[],"categories_nodes":[],"categories_segments":[],"categories_sizes":[],"default_left":[0,0,0,0,0,0,1,0,0,0,0,0,0,0,0],"id":39,"left_children":[1,3,5,7,9,11,13,-1,-1,-1,-1,-1,-1,-1,-1],"loss_changes":[6.539017E3,2.112124E2,4.2255156E3,1.4998535E1,1.0740152E2,1.0174817E2,5.74134E3,0E0,0E0,0E0,0E0,0E0,0E0,0E0,0E0],"parents":[2147483647,0,0,1,1,2,2,3,3,4,4,5,5,6,6],"right_children":[2,4,6,8,10,12,14,-1,-1,-1,-1,-1,-1,-1,-1],"split_conditions":[1.47E0,1.33E0,-9.8E-1,1.25E0,7E-1,-1.1E0,1.03E0,-3.1200929E-2,-2.5531145E-2,-8.995156E-3,-2.9253997E-2,-3.1658042E-2,-1.5224947E-2,2.5691548E-2,-2.8770678E-2],"split_indices":[4,4,3,4,3,3,3,0,0,0,0,0,0,0,0],"split_type":[0,0,0,0,0,0,0,0,0,0,0,0,0,0,0],"sum_hessian":[1.6949072E4,4.752703E3,1.2196369E4,3.8732363E3,8.794668E2,1.8169882E3,1.0379381E4,3.451385E3,4.2185114E2,5.876053E2,2.918615E2,1.4662743E3,3.5071393E2,8.649725E3,1.7296564E3],"tree_param":{"num_deleted":"0","num_feature":"6","num_nodes":"15","size_leaf_vector":"1"}},{"base_weights":[-2.3900429E-2,1.117615E0,-7.7120465E-1,8.506276E-1,1.2182631E0,-6.5803134E-1,-1.1440992E0,2.5181489E-2,1.6895134E-2,3.4196932E-2,2.6552431E-2,-3.1040557E-2,-1.3798607E-2,-2.7871784E-2,-3.168794E-2],"categories":[],"categories_nodes":[],"categories_segments":[],"categories_sizes":[],"default_left":[0,0,1,0,0,0,0,0,0,0,0,0,0,0,0],"id":40,"left_children":[1,3,5,7,9,11,13,-1,-1,-1,-1,-1,-1,-1,-1],"loss_changes":[1.4312398E4,1.7733984E2,4.271582E2,2.9771973E1,3.971924E1,5.6802637E2,3.7043457E0,0E0,0E0,0E0,0E0,0E0,0E0,0E0,0E0],"parents":[2147483647,0,0,1,1,2,2,3,3,4,4,5,5,6,6],"right_children":[2,4,6,8,10,12,14,-1,-1,-1,-1,-1,-1,-1,-1],"split_conditions":[1.1E1,1E0,1.13E0,9E0,9E0,-1.08E0,1.21E0,2.5181489E-2,1.6895134E-2,3.4196932E-2,2.6552431E-2,-3.1040557E-2,-1.3798607E-2,-2.7871784E-2,-3.168794E-2],"split_indices":[0,5,3,0,0,3,3,0,0,0,0,0,0,0,0],"split_type":[0,0,0,0,0,0,0,0,0,0,0,0,0,0,0],"sum_hessian":[1.6775719E4,6.6370522E3,1.0138666E4,1.8196228E3,4.817429E3,7.7801577E3,2.3585083E3,1.3861023E3,4.3352045E2,4.2184575E3,5.9897186E2,1.8765602E3,5.9035977E3,2.917548E2,2.0667537E3],"tree_param":{"num_deleted":"0","num_feature":"6","num_nodes":"15","size_leaf_vector":"1"}},{"base_weights":[-2.8627057E-2,-5.243214E-1,1.1973038E0,-1.079258E0,-2.2623734E-1,4.2242298E-1,1.2508014E0,-3.0956449E-2,-2.271389E-2,-3.2114286E-3,-2.9419953E-2,2.2544377E-3,1.9397197E-2,3.503866E-2,1.5162658E-2],"categories":[],"categories_nodes":[],"categories_segments":[],"categories_sizes":[],"default_left":[0,0,0,0,1,0,0,0,0,0,0,0,0,0,0],"id":41,"left_children":[1,3,5,7,9,11,13,-1,-1,-1,-1,-1,-1,-1,-1],"loss_changes":[1.0037782E4,1.9454111E3,1.9662451E2,5.48042E1,7.075532E2,3.017368E1,1.0108301E2,0E0,0E0,0E0,0E0,0E0,0E0,0E0,0E0],"parents":[2147483647,0,0,1,1,2,2,3,3,4,4,5,5,6,6],"right_children":[2,4,6,8,10,12,14,-1,-1,-1,-1,-1,-1,-1,-1],"split_conditions":[1E0,1.4E0,1.65E0,1.26E0,3.59E0,1.57E0,3.28E0,-3.0956449E-2,-2.271389E-2,-3.2114286E-3,-2.9419953E-2,2.2544377E-3,1.9397197E-2,3.503866E-2,1.5162658E-2],"split_indices":[5,4,4,4,4,4,4,0,0,0,0,0,0,0,0],"split_type":[0,0,0,0,0,0,0,0,0,0,0,0,0,0,0],"sum_hessian":[1.6515982E4,1.1761069E4,4.7549126E3,4.1089346E3,7.652135E3,3.0765195E2,4.4472603E3,3.3590444E3,7.4989026E2,6.7878413E3,8.642936E2,1.4178024E2,1.6587172E2,4.245441E3,2.0181964E2],"tree_param":{"num_deleted":"0","num_feature":"6","num_nodes":"15","size_leaf_vector":"1"}},{"base_weights":[-2.4863051E-2,-5.093801E-1,1.1820085E0,-1.0744693E0,-2.1280873E-1,3.9607567E-1,1.2378241E0,-3.0858599E-2,-2.2444045E-2,-2.880103E-3,-2.9164499E-2,9.0763666E-4,1.7891195E-2,3.468412E-2,1.5309253E-2],"categories":[],"categories_nodes":[],"categories_segments":[],"categories_sizes":[],"default_left":[0,0,0,0,1,0,0,0,0,0,0,0,0,0,0],"id":42,"left_children":[1,3,5,7,9,11,13,-1,-1,-1,-1,-1,-1,-1,-1],"loss_changes":[9.564347E3,1.9556768E3,2.0504785E2,5.5896973E1,7.026863E2,2.9357998E1,9.671338E1,0E0,0E0,0E0,0E0,0E0,0E0,0E0,0E0],"parents":[2147483647,0,0,1,1,2,2,3,3,4,4,5,5,6,6],"right_children":[2,4,6,8,10,12,14,-1,-1,-1,-1,-1,-1,-1,-1],"split_conditions":[1E0,1.4E0,1.65E0,1.26E0,3.59E0,1.56E0,3.28E0,-3.0858599E-2,-2.2444045E-2,-2.880103E-3,-2.9164499E-2,9.0763666E-4,1.7891195E-2,3.468412E-2,1.5309253E-2],"split_indices":[5,4,4,4,4,4,4,0,0,0,0,0,0,0,0],"split_type":[0,0,0,0,0,0,0,0,0,0,0,0,0,0,0],"sum_hessian":[1.6354272E4,1.1669822E4,4.6844507E3,4.0156848E3,7.654137E3,3.1115808E2,4.3732925E3,3.2820781E3,7.336067E2,6.8023564E3,8.5178107E2,1.301916E2,1.8096646E2,4.169749E3,2.0354356E2],"tree_param":{"num_deleted":"0","num_feature":"6","num_nodes":"15","size_leaf_vector":"1"}},{"base_weights":[-2.1738637E-2,-4.9902412E-1,1.170316E0,-1.0668994E0,-2.0460033E-1,3.3369133E-1,1.2207855E0,-3.0699078E-2,-2.2103675E-2,-2.6972566E-3,-2.9137785E-2,1.5652891E-2,-8.828891E-4,3.4193512E-2,1.491568E-2],"categories":[],"categories_nodes":[],"categories_segments":[],"categories_sizes":[],"default_left":[0,0,0,0,1,0,0,0,0,0,0,0,0,0,0],"id":43,"left_children":[1,3,5,7,9,11,13,-1,-1,-1,-1,-1,-1,-1,-1],"loss_changes":[9.2046E3,1.9313335E3,1.9490283E2,5.7726074E1,6.9447894E2,2.3237226E1,9.333887E1,0E0,0E0,0E0,0E0,0E0,0E0,0E0,0E0],"parents":[2147483647,0,0,1,1,2,2,3,3,4,4,5,5,6,6],"right_children":[2,4,6,8,10,12,14,-1,-1,-1,-1,-1,-1,-1,-1],"split_conditions":[1E0,1.4E0,1.63E0,1.26E0,3.59E0,1E0,3.28E0,-3.0699078E-2,-2.2103675E-2,-2.6972566E-3,-2.9137785E-2,1.5652891E-2,-8.828891E-4,3.4193512E-2,1.491568E-2],"split_indices":[5,4,4,4,4,2,4,0,0,0,0,0,0,0,0],"split_type":[0,0,0,0,0,0,0,0,0,0,0,0,0,0,0],"sum_hessian":[1.6176184E4,1.1551623E4,4.6245605E3,3.9432957E3,7.6083276E3,2.635385E2,4.361022E3,3.2164458E3,7.268496E2,6.778506E3,8.298218E2,1.5888733E2,1.04651184E2,4.1628267E3,1.9819542E2],"tree_param":{"num_deleted":"0","num_feature":"6","num_nodes":"15","size_leaf_vector":"1"}},{"base_weights":[-2.0917067E-2,1.067956E0,-7.396037E-1,8.483732E-1,1.1552951E0,-5.26975E-1,-8.87339E-1,2.7380552E-2,1.7036576E-2,3.2600183E-2,2.4054823E-2,-1.2245589E-2,-1.766824E-2,-2.1665398E-2,-2.701609E-2],"categories":[],"categories_nodes":[],"categories_segments":[],"categories_sizes":[],"default_left":[1,0,0,0,0,0,0,0,0,0,0,0,0,0,0],"id":44,"left_children":[1,3,5,7,9,11,13,-1,-1,-1,-1,-1,-1,-1,-1],"loss_changes":[1.25065E4,1.208833E2,3.0195166E2,6.2249146E1,4.7597168E1,3.6936768E1,5.366211E1,0E0,0E0,0E0,0E0,0E0,0E0,0E0,0E0],"parents":[2147483647,0,0,1,1,2,2,3,3,4,4,5,5,6,6],"right_children":[2,4,6,8,10,12,14,-1,-1,-1,-1,-1,-1,-1,-1],"split_conditions":[1.1E1,1E0,1E0,1E0,9E0,1.4E1,2E0,2.7380552E-2,1.7036576E-2,3.2600183E-2,2.4054823E-2,-1.2245589E-2,-1.766824E-2,-2.1665398E-2,-2.701609E-2],"split_indices":[0,5,2,2,0,0,2,0,0,0,0,0,0,0,0],"split_type":[0,0,0,0,0,0,0,0,0,0,0,0,0,0,0],"sum_hessian":[1.5979543E4,6.3532812E3,9.626262E3,1.8109692E3,4.542312E3,3.9482666E3,5.677995E3,1.0693221E3,7.4164716E2,3.9723574E3,5.699548E2,2.3944023E3,1.5538643E3,2.9720396E3,2.7059558E3],"tree_param":{"num_deleted":"0","num_feature":"6","num_nodes":"15","size_leaf_vector":"1"}},{"base_weights":[-1.8624634E-2,1.0525395E0,-7.26644E-1,1.1050885E0,7.706748E-1,-6.0643023E-1,-1.1289108E0,2.1311905E-2,3.1222967E-2,2.3477798E-2,4.199076E-3,-3.0507002E-2,-1.1920128E-2,-2.6833722E-2,-3.128612E-2],"categories":[],"categories_nodes":[],"categories_segments":[],"categories_sizes":[],"default_left":[0,0,1,0,0,0,0,0,0,0,0,0,0,0,0],"id":45,"left_children":[1,3,5,7,9,11,13,-1,-1,-1,-1,-1,-1,-1,-1],"loss_changes":[1.1973898E4,9.2208984E1,4.5897607E2,6.576172E1,5.4544556E1,6.3468506E2,4.393799E0,0E0,0E0,0E0,0E0,0E0,0E0,0E0,0E0],"parents":[2147483647,0,0,1,1,2,2,3,3,4,4,5,5,6,6],"right_children":[2,4,6,8,10,12,14,-1,-1,-1,-1,-1,-1,-1,-1],"split_conditions":[1.1E1,9E0,1.13E0,2E0,2E0,-1.06E0,1.2E0,2.1311905E-2,3.1222967E-2,2.3477798E-2,4.199076E-3,-3.0507002E-2,-1.1920128E-2,-2.6833722E-2,-3.128612E-2],"split_indices":[0,0,3,0,2,3,3,0,0,0,0,0,0,0,0],"split_type":[0,0,0,0,0,0,0,0,0,0,0,0,0,0,0],"sum_hessian":[1.5786259E4,6.2818887E3,9.50437E3,5.292304E3,9.8958453E2,7.319509E3,2.1848613E3,5.682087E2,4.724095E3,8.6386884E2,1.25715706E2,1.8227761E3,5.4967324E3,2.3814511E2,1.9467162E3],"tree_param":{"num_deleted":"0","num_feature":"6","num_nodes":"15","size_leaf_vector":"1"}},{"base_weights":[-2.2876875E-2,-4.781072E-1,1.1294568E0,-3.1014714E-1,-1.0865724E0,1.1644706E0,8.965842E-1,-2.9763574E-2,-2.606014E-3,-2.2789175E-2,-3.0927502E-2,2.4832752E-2,3.224122E-2,1.6881436E-2,2.7055914E-2],"categories":[],"categories_nodes":[],"categories_segments":[],"categories_sizes":[],"default_left":[0,1,0,0,0,0,0,0,0,0,0,0,0,0,0],"id":46,"left_children":[1,3,5,7,9,11,13,-1,-1,-1,-1,-1,-1,-1,-1],"loss_changes":[8.188895E3,1.1432427E3,3.5E1,1.4690442E3,2.7387451E1,1.5307617E1,1.4712402E1,0E0,0E0,0E0,0E0,0E0,0E0,0E0,0E0],"parents":[2147483647,0,0,1,1,2,2,3,3,4,4,5,5,6,6],"right_children":[2,4,6,8,10,12,14,-1,-1,-1,-1,-1,-1,-1,-1],"split_conditions":[1E0,1.06E0,5.3E-1,-1.03E0,1.16E0,-6.2E-1,1E0,-2.9763574E-2,-2.606014E-3,-2.2789175E-2,-3.0927502E-2,2.4832752E-2,3.224122E-2,1.6881436E-2,2.7055914E-2],"split_indices":[5,3,3,3,3,3,1,0,0,0,0,0,0,0,0],"split_type":[0,0,0,0,0,0,0,0,0,0,0,0,0,0,0],"sum_hessian":[1.5608437E4,1.1188855E4,4.4195815E3,8.76961E3,2.4192441E3,3.8384473E3,5.81134E2,1.8912039E3,6.878407E3,3.8042343E2,2.0388208E3,2.4035582E2,3.5980916E3,1.4949672E2,4.3163727E2],"tree_param":{"num_deleted":"0","num_feature":"6","num_nodes":"15","size_leaf_vector":"1"}},{"base_weights":[-2.2072649E-2,1.0277154E0,-7.158231E-1,4.147792E-1,1.1239849E0,-1.0827972E0,-4.9536377E-1,4.460602E-3,1.5979847E-2,3.232808E-2,4.6129287E-3,-3.0449927E-2,-2.4225535E-2,-1.129711E-2,-2.933762E-2],"categories":[],"categories_nodes":[],"categories_segments":[],"categories_sizes":[],"default_left":[0,0,0,0,0,0,1,0,0,0,0,0,0,0,0],"id":47,"left_children":[1,3,5,7,9,11,13,-1,-1,-1,-1,-1,-1,-1,-1],"loss_changes":[1.1222862E4,3.6133887E2,7.50104E2,3.5678925E1,3.0554443E2,2.1303467E1,2.732849E2,0E0,0E0,0E0,0E0,0E0,0E0,0E0,0E0],"parents":[2147483647,0,0,1,1,2,2,3,3,4,4,5,5,6,6],"right_children":[2,4,6,8,10,12,14,-1,-1,-1,-1,-1,-1,-1,-1],"split_conditions":[1.1E1,1.66E0,1.36E0,1.53E0,3.33E0,1.25E0,3.62E0,4.460602E-3,1.5979847E-2,3.232808E-2,4.6129287E-3,-3.0449927E-2,-2.4225535E-2,-1.129711E-2,-2.933762E-2],"split_indices":[0,4,4,4,4,4,4,0,0,0,0,0,0,0,0],"split_type":[0,0,0,0,0,0,0,0,0,0,0,0,0,0,0],"sum_hessian":[1.5407849E4,6.13056E3,9.277289E3,8.328992E2,5.297661E3,3.4802292E3,5.7970596E3,3.376289E2,4.9527023E2,4.9821934E3,3.1546762E2,2.9756226E3,5.0460672E2,5.084005E3,7.130546E2],"tree_param":{"num_deleted":"0","num_feature":"6","num_nodes":"15","size_leaf_vector":"1"}},{"base_weights":[-2.4165852E-2,1.0046381E0,-7.060506E-1,4.9210632E-1,1.1192644E0,-1.0784155E0,-4.8608148E-1,4.3483693E-3,1.7818054E-2,3.286989E-2,8.272497E-3,-3.0305224E-2,-2.378291E-2,-1.1054755E-2,-2.924218E-2],"categories":[],"categories_nodes":[],"categories_segments":[],"categories_sizes":[],"default_left":[0,0,0,0,0,0,1,0,0,0,0,0,0,0,0],"id":48,"left_children":[1,3,5,7,9,11,13,-1,-1,-1,-1,-1,-1,-1,-1],"loss_changes":[1.06842705E4,3.5610352E2,7.4970215E2,5.932904E1,3.4373926E2,2.1482422E1,2.7284167E2,0E0,0E0,0E0,0E0,0E0,0E0,0E0,0E0],"parents":[2147483647,0,0,1,1,2,2,3,3,4,4,5,5,6,6],"right_children":[2,4,6,8,10,12,14,-1,-1,-1,-1,-1,-1,-1,-1],"split_conditions":[1.1E1,1.73E0,1.36E0,1.54E0,3.24E0,1.26E0,3.62E0,4.3483693E-3,1.7818054E-2,3.286989E-2,8.272497E-3,-3.0305224E-2,-2.378291E-2,-1.1054755E-2,-2.924218E-2],"split_indices":[0,4,4,4,4,4,4,0,0,0,0,0,0,0,0],"split_type":[0,0,0,0,0,0,0,0,0,0,0,0,0,0,0],"sum_hessian":[1.5228039E4,6.0697456E3,9.158294E3,1.110341E3,4.959405E3,3.399574E3,5.7587197E3,3.6220975E2,7.4813116E2,4.4912344E3,4.6817017E2,2.942245E3,4.5732877E2,5.059592E3,6.99128E2],"tree_param":{"num_deleted":"0","num_feature":"6","num_nodes":"15","size_leaf_vector":"1"}},{"base_weights":[-2.2142492E-2,-4.563136E-1,1.0907924E0,-1.6955984E-1,-6.837959E-1,1.114971E0,2.1667292E-2,-5.6758528E-3,-3.8837565E-3,-1.4703633E-2,-2.3446308E-2,3.112288E-2,2.8468229E-2],"categories":[],"categories_nodes":[],"categories_segments":[],"categories_sizes":[],"default_left":[0,0,0,0,0,0,0,0,0,0,0,0,0],"id":49,"left_children":[1,3,5,7,9,11,-1,-1,-1,-1,-1,-1,-1],"loss_changes":[7.24361E3,7.033281E2,2.9321777E1,4.9655914E0,1.5240332E2,5.8847656E0,0E0,0E0,0E0,0E0,0E0,0E0,0E0],"parents":[2147483647,0,0,1,1,2,2,3,3,4,4,5,5],"right_children":[2,4,6,8,10,12,-1,-1,-1,-1,-1,-1,-1],"split_conditions":[1E0,1E0,2E0,1E0,2E0,1E0,2.1667292E-2,-5.6758528E-3,-3.8837565E-3,-1.4703633E-2,-2.3446308E-2,3.112288E-2,2.8468229E-2],"split_indices":[5,2,2,1,2,2,0,0,0,0,0,0,0],"split_type":[0,0,0,0,0,0,0,0,0,0,0,0,0],"sum_hessian":[1.4988754E4,1.0782819E4,4.205935E3,4.7707617E3,6.012057E3,3.886727E3,3.192081E2,1.9787474E3,2.7920144E3,3.2908506E3,2.7212068E3,2.8654365E3,1.0212905E3],"tree_param":{"num_deleted":"0","num_feature":"6","num_nodes":"13","size_leaf_vector":"1"}},{"base_weights":[-2.2980453E-2,1.6649333E-1,-1.0699261E0,-1.0196451E0,3.8718328E-1,-7.968536E-1,-1.1205356E0,-3.0549027E-2,-1.7010016E-2,1.425502E-2,-9.237072E-3,-3.0057136E-2,-1.932008E-2,-2.7769992E-2,-3.0927502E-2],"categories":[],"categories_nodes":[],"categories_segments":[],"categories_sizes":[],"default_left":[1,0,0,0,0,0,0,0,0,0,0,0,0,0,0],"id":50,"left_children":[1,3,5,7,9,11,13,-1,-1,-1,-1,-1,-1,-1,-1],"loss_changes":[2.9521418E3,3.2991025E3,3.0625E1,7.735718E1,1.0416262E3,8.975586E0,1.3356934E0,0E0,0E0,0E0,0E0,0E0,0E0,0E0,0E0],"parents":[2147483647,0,0,1,1,2,2,3,3,4,4,5,5,6,6],"right_children":[2,4,6,8,10,12,14,-1,-1,-1,-1,-1,-1,-1,-1],"split_conditions":[1.06E0,-9.8E-1,1.16E0,-1.1E0,2E0,1E0,1.23E0,-3.0549027E-2,-1.7010016E-2,1.425502E-2,-9.237072E-3,-3.0057136E-2,-1.932008E-2,-2.7769992E-2,-3.0927502E-2],"split_indices":[3,3,3,3,2,1,3,0,0,0,0,0,0,0,0],"split_type":[0,0,0,0,0,0,0,0,0,0,0,0,0,0,0],"sum_hessian":[1.4880194E4,1.2600606E4,2.2795874E3,1.9760964E3,1.0624511E4,3.5904495E2,1.9205425E3,1.5779183E3,3.98178E2,8.957287E3,1.6672233E3,7.867974E1,2.803652E2,2.1739873E2,1.7031437E3],"tree_param":{"num_deleted":"0","num_feature":"6","num_nodes":"15","size_leaf_vector":"1"}},{"base_weights":[-2.4781058E-2,9.7069556E-1,-6.854697E-1,7.49224E-1,1.0670577E0,-5.6535673E-1,-1.1063857E0,2.24751E-2,1.3868037E-2,3.0286267E-2,2.1224588E-2,-2.9779071E-2,-1.0904645E-2,-2.5862997E-2,-3.0718256E-2],"categories":[],"categories_nodes":[],"categories_segments":[],"categories_sizes":[],"default_left":[1,0,0,0,0,0,0,0,0,0,0,0,0,0,0],"id":51,"left_children":[1,3,5,7,9,11,13,-1,-1,-1,-1,-1,-1,-1,-1],"loss_changes":[9.73055E3,1.2515918E2,4.4896924E2,3.1658203E1,4.9751953E1,6.0287427E2,4.9018555E0,0E0,0E0,0E0,0E0,0E0,0E0,0E0,0E0],"parents":[2147483647,0,0,1,1,2,2,3,3,4,4,5,5,6,6],"right_children":[2,4,6,8,10,12,14,-1,-1,-1,-1,-1,-1,-1,-1],"split_conditions":[1.1E1,1E0,1.13E0,9E0,9E0,-1.06E0,1.2E0,2.24751E-2,1.3868037E-2,3.0286267E-2,2.1224588E-2,-2.9779071E-2,-1.0904645E-2,-2.5862997E-2,-3.0718256E-2],"split_indices":[0,5,3,0,0,3,3,0,0,0,0,0,0,0,0],"split_type":[0,0,0,0,0,0,0,0,0,0,0,0,0,0,0],"sum_hessian":[1.4792802E4,5.901057E3,8.891744E3,1.7917676E3,4.1092896E3,6.919526E3,1.9722185E3,1.3683204E3,4.2344717E2,3.5802317E3,5.2905804E2,1.658158E3,5.261368E3,2.1656038E2,1.7556581E3],"tree_param":{"num_deleted":"0","num_feature":"6","num_nodes":"15","size_leaf_vector":"1"}},{"base_weights":[-1.8342152E-2,-9.786581E-1,3.1813782E-1,-1.0755862E0,-5.269989E-1,-1.025805E0,5.277498E-1,-3.0118467E-2,-2.3359524E-2,-7.41821E-3,-2.7264293E-2,-3.0282006E-2,-1.55458795E-2,2.200763E-2,-2.7798554E-2],"categories":[],"categories_nodes":[],"categories_segments":[],"categories_sizes":[],"default_left":[0,0,0,0,0,0,1,0,0,0,0,0,0,0,0],"id":52,"left_children":[1,3,5,7,9,11,13,-1,-1,-1,-1,-1,-1,-1,-1],"loss_changes":[4.716124E3,1.6522363E2,3.0452993E3,1.8144287E1,8.0548874E1,5.503064E1,4.0280474E3,0E0,0E0,0E0,0E0,0E0,0E0,0E0,0E0],"parents":[2147483647,0,0,1,1,2,2,3,3,4,4,5,5,6,6],"right_children":[2,4,6,8,10,12,14,-1,-1,-1,-1,-1,-1,-1,-1],"split_conditions":[1.45E0,1.33E0,-1.01E0,1.25E0,6.1E-1,-1.1E0,1.05E0,-3.0118467E-2,-2.3359524E-2,-7.41821E-3,-2.7264293E-2,-3.0282006E-2,-1.55458795E-2,2.200763E-2,-2.7798554E-2],"split_indices":[4,4,3,4,3,3,3,0,0,0,0,0,0,0,0],"split_type":[0,0,0,0,0,0,0,0,0,0,0,0,0,0,0],"sum_hessian":[1.4593297E4,3.7860317E3,1.0807266E4,3.1159524E3,6.700792E2,1.4576349E3,9.349631E3,2.7617244E3,3.5422797E2,4.3590057E2,2.3417867E2,1.2306069E3,2.2702803E2,7.9228286E3,1.4268019E3],"tree_param":{"num_deleted":"0","num_feature":"6","num_nodes":"15","size_leaf_vector":"1"}},{"base_weights":[-2.4641886E-2,9.4342166E-1,-6.688343E-1,4.1264975E-1,1.0618993E0,-1.0646391E0,-4.4088423E-1,1.5565433E-2,-2.889944E-3,3.1125903E-2,5.1927413E-3,-3.001456E-2,-2.292749E-2,-6.3629434E-3,-2.945568E-2],"categories":[],"categories_nodes":[],"categories_segments":[],"categories_sizes":[],"default_left":[1,1,0,0,0,0,0,0,0,0,0,0,0,0,0],"id":53,"left_children":[1,3,5,7,9,11,13,-1,-1,-1,-1,-1,-1,-1,-1],"loss_changes":[9.001355E3,3.6223438E2,7.81479E2,8.6211655E1,3.2220215E2,2.3978516E1,7.292832E2,0E0,0E0,0E0,0E0,0E0,0E0,0E0,0E0],"parents":[2147483647,0,0,1,1,2,2,3,3,4,4,5,5,6,6],"right_children":[2,4,6,8,10,12,14,-1,-1,-1,-1,-1,-1,-1,-1],"split_conditions":[1.1E1,1.72E0,1.36E0,5.2E-1,3.28E0,1.26E0,1.1E0,1.5565433E-2,-2.889944E-3,3.1125903E-2,5.1927413E-3,-3.001456E-2,-2.292749E-2,-6.3629434E-3,-2.945568E-2],"split_indices":[0,4,4,3,4,4,3,0,0,0,0,0,0,0,0],"split_type":[0,0,0,0,0,0,0,0,0,0,0,0,0,0,0],"sum_hessian":[1.4432045E4,5.7662773E3,8.665768E3,1.0530713E3,4.713206E3,3.165548E3,5.5002197E3,8.075055E2,2.4556572E2,4.323691E3,3.8951523E2,2.73538E3,4.301681E2,4.1505635E3,1.3496564E3],"tree_param":{"num_deleted":"0","num_feature":"6","num_nodes":"15","size_leaf_vector":"1"}},{"base_weights":[-1.8377297E-2,9.3940413E-1,-6.611192E-1,4.346733E-1,1.0568278E0,-1.0633725E0,-4.3829268E-1,1.5666177E-2,-5.3025875E-4,3.0785425E-2,1.6203328E-3,-2.9932845E-2,-2.3181163E-2,-2.9168716E-2,-6.2725046E-3],"categories":[],"categories_nodes":[],"categories_segments":[],"categories_sizes":[],"default_left":[1,1,0,0,0,0,0,0,0,0,0,0,0,0,0],"id":54,"left_children":[1,3,5,7,9,11,13,-1,-1,-1,-1,-1,-1,-1,-1],"loss_changes":[8.759277E3,3.3819434E2,7.62728E2,6.833206E1,3.2845605E2,2.0689209E1,7.200935E2,0E0,0E0,0E0,0E0,0E0,0E0,0E0,0E0],"parents":[2147483647,0,0,1,1,2,2,3,3,4,4,5,5,6,6],"right_children":[2,4,6,8,10,12,14,-1,-1,-1,-1,-1,-1,-1,-1],"split_conditions":[1.1E1,1.73E0,1.35E0,5.2E-1,3.33E0,1.25E0,-1.05E0,1.5666177E-2,-5.3025875E-4,3.0785425E-2,1.6203328E-3,-2.9932845E-2,-2.3181163E-2,-2.9168716E-2,-6.2725046E-3],"split_indices":[0,4,4,3,4,4,3,0,0,0,0,0,0,0,0],"split_type":[0,0,0,0,0,0,0,0,0,0,0,0,0,0,0],"sum_hessian":[1.4226691E4,5.7130024E3,8.513688E3,1.0791426E3,4.63386E3,3.033589E3,5.4800996E3,8.256269E2,2.5351567E2,4.3255674E3,3.0829242E2,2.621878E3,4.117112E2,1.360987E3,4.1191123E3],"tree_param":{"num_deleted":"0","num_feature":"6","num_nodes":"15","size_leaf_vector":"1"}},{"base_weights":[-2.0505901E-2,9.2506784E-1,-6.540272E-1,6.9593537E-1,1.0306442E0,-4.3168452E-1,-8.166084E-1,2.29718E-2,1.3405947E-2,2.929717E-2,2.0291463E-2,-9.716234E-3,-1.5019436E-2,-1.9676246E-2,-2.5286764E-2],"categories":[],"categories_nodes":[],"categories_segments":[],"categories_sizes":[],"default_left":[1,0,0,0,0,0,0,0,0,0,0,0,0,0,0],"id":55,"left_children":[1,3,5,7,9,11,13,-1,-1,-1,-1,-1,-1,-1,-1],"loss_changes":[8.429837E3,1.3585742E2,3.0425586E2,5.280597E1,4.6598145E1,3.1776978E1,5.049292E1,0E0,0E0,0E0,0E0,0E0,0E0,0E0,0E0],"parents":[2147483647,0,0,1,1,2,2,3,3,4,4,5,5,6,6],"right_children":[2,4,6,8,10,12,14,-1,-1,-1,-1,-1,-1,-1,-1],"split_conditions":[1.1E1,1E0,1E0,1E0,9E0,1.4E1,2E0,2.29718E-2,1.3405947E-2,2.929717E-2,2.0291463E-2,-9.716234E-3,-1.5019436E-2,-1.9676246E-2,-2.5286764E-2],"split_indices":[0,5,2,2,0,0,2,0,0,0,0,0,0,0,0],"split_type":[0,0,0,0,0,0,0,0,0,0,0,0,0,0,0],"sum_hessian":[1.4070207E4,5.6446787E3,8.425528E3,1.7828817E3,3.861797E3,3.5602542E3,4.8652744E3,1.0399381E3,7.4294354E2,3.3594092E3,5.0238803E2,2.1753855E3,1.3848685E3,2.6035208E3,2.2617534E3],"tree_param":{"num_deleted":"0","num_feature":"6","num_nodes":"15","size_leaf_vector":"1"}},{"base_weights":[-1.9669909E-2,9.0952533E-1,-6.428062E-1,6.7707956E-1,1.0174526E0,-4.5798895E-1,-7.1761686E-1,7.842478E-3,1.9983029E-2,2.899372E-2,1.9634414E-2,-1.4430347E-2,-9.757E-3,-1.765452E-2,-2.0805126E-2],"categories":[],"categories_nodes":[],"categories_segments":[],"categories_sizes":[],"default_left":[0,0,0,0,0,0,1,0,0,0,0,0,0,0,0],"id":56,"left_children":[1,3,5,7,9,11,13,-1,-1,-1,-1,-1,-1,-1,-1],"loss_changes":[8.040378E3,1.3915332E2,1.145957E2,3.7771057E1,5.004126E1,1.685141E1,1.8196777E1,0E0,0E0,0E0,0E0,0E0,0E0,0E0,0E0],"parents":[2147483647,0,0,1,1,2,2,3,3,4,4,5,5,6,6],"right_children":[2,4,6,8,10,12,14,-1,-1,-1,-1,-1,-1,-1,-1],"split_conditions":[1.1E1,1E0,1.3E1,2E0,9E0,1.2E1,1.4E1,7.842478E-3,1.9983029E-2,2.899372E-2,1.9634414E-2,-1.4430347E-2,-9.757E-3,-1.765452E-2,-2.0805126E-2],"split_indices":[0,5,0,0,0,0,0,0,0,0,0,0,0,0,0],"split_type":[0,0,0,0,0,0,0,0,0,0,0,0,0,0,0],"sum_hessian":[1.3884286E4,5.5732397E3,8.311046E3,1.7694977E3,3.8037422E3,2.3968447E3,5.9142017E3,2.1973509E2,1.5497626E3,3.304622E3,4.9912E2,1.404668E3,9.921769E2,2.292313E3,3.6218887E3],"tree_param":{"num_deleted":"0","num_feature":"6","num_nodes":"15","size_leaf_vector":"1"}},{"base_weights":[-2.2726024E-2,-9.661096E-1,2.886774E-1,-1.085945E0,-6.2051654E-1,-1.0061654E0,4.8608845E-1,-2.999921E-2,-2.689979E-2,-1.2069982E-2,-2.9253468E-2,-2.989646E-2,-1.4540563E-2,2.031948E-2,-2.776876E-2],"categories":[],"categories_nodes":[],"categories_segments":[],"categories_sizes":[],"default_left":[0,0,0,0,0,0,1,0,0,0,0,0,0,0,0],"id":57,"left_children":[1,3,5,7,9,11,13,-1,-1,-1,-1,-1,-1,-1,-1],"loss_changes":[4.0204683E3,1.399851E2,2.6306006E3,2.2426758E0,7.007486E1,5.6884766E1,3.4689746E3,0E0,0E0,0E0,0E0,0E0,0E0,0E0,0E0],"parents":[2147483647,0,0,1,1,2,2,3,3,4,4,5,5,6,6],"right_children":[2,4,6,8,10,12,14,-1,-1,-1,-1,-1,-1,-1,-1],"split_conditions":[1.44E0,1.26E0,-1.01E0,1.17E0,7.7E-1,-1.1E0,1.06E0,-2.999921E-2,-2.689979E-2,-1.2069982E-2,-2.9253468E-2,-2.989646E-2,-1.4540563E-2,2.031948E-2,-2.776876E-2],"split_indices":[4,4,3,4,3,3,3,0,0,0,0,0,0,0,0],"split_type":[0,0,0,0,0,0,0,0,0,0,0,0,0,0,0],"sum_hessian":[1.3683687E4,3.3953906E3,1.0288296E4,2.5195771E3,8.758134E2,1.3605022E3,8.927794E3,2.2192444E3,3.0033264E2,6.291774E2,2.4663602E2,1.1437982E3,2.1670398E2,7.6190215E3,1.3087721E3],"tree_param":{"num_deleted":"0","num_feature":"6","num_nodes":"15","size_leaf_vector":"1"}},{"base_weights":[-2.0612605E-2,-9.516868E-1,2.8923225E-1,-1.0825377E0,-5.992612E-1,-1.0276932E0,4.784364E-1,-2.9902242E-2,-2.6884405E-2,-1.1428143E-2,-2.8767955E-2,-3.0369196E-2,-1.9699095E-2,1.9944588E-2,-2.694357E-2],"categories":[],"categories_nodes":[],"categories_segments":[],"categories_sizes":[],"default_left":[0,0,0,0,0,0,1,0,0,0,0,0,0,0,0],"id":58,"left_children":[1,3,5,7,9,11,13,-1,-1,-1,-1,-1,-1,-1,-1],"loss_changes":[3.9151611E3,1.5561743E2,2.5376992E3,2.052246E0,7.507446E1,3.2453003E1,3.2928608E3,0E0,0E0,0E0,0E0,0E0,0E0,0E0,0E0],"parents":[2147483647,0,0,1,1,2,2,3,3,4,4,5,5,6,6],"right_children":[2,4,6,8,10,12,14,-1,-1,-1,-1,-1,-1,-1,-1],"split_conditions":[1.45E0,1.26E0,-1.03E0,1.17E0,7.7E-1,-1.16E0,1.05E0,-2.9902242E-2,-2.6884405E-2,-1.1428143E-2,-2.8767955E-2,-3.0369196E-2,-1.9699095E-2,1.9944588E-2,-2.694357E-2],"split_indices":[4,4,3,4,3,3,3,0,0,0,0,0,0,0,0],"split_type":[0,0,0,0,0,0,0,0,0,0,0,0,0,0,0],"sum_hessian":[1.3569334E4,3.3876072E3,1.0181727E4,2.4688757E3,9.187316E2,1.2784999E3,8.903227E3,2.1696956E3,2.9918015E2,6.5897345E2,2.5975815E2,9.986213E2,2.798787E2,7.5961646E3,1.3070619E3],"tree_param":{"num_deleted":"0","num_feature":"6","num_nodes":"15","size_leaf_vector":"1"}},{"base_weights":[-1.8738117E-2,-3.972458E-1,9.9124724E-1,-1.031736E0,-1.3909131E-1,2.911934E-1,1.0806744E0,-2.9476127E-2,-2.0436706E-2,-6.72512E-4,-2.5971964E-2,-6.4213127E-3,1.438604E-2,3.0792465E-2,7.136212E-3],"categories":[],"categories_nodes":[],"categories_segments":[],"categories_sizes":[],"default_left":[0,0,0,0,1,0,0,0,0,0,0,0,0,0,0],"id":59,"left_children":[1,3,5,7,9,11,13,-1,-1,-1,-1,-1,-1,-1,-1],"loss_changes":[5.1311553E3,1.5990455E3,2.2875024E2,3.7690674E1,6.4538336E2,5.1759346E1,1.25870605E2,0E0,0E0,0E0,0E0,0E0,0E0,0E0,0E0],"parents":[2147483647,0,0,1,1,2,2,3,3,4,4,5,5,6,6],"right_children":[2,4,6,8,10,12,14,-1,-1,-1,-1,-1,-1,-1,-1],"split_conditions":[1E0,1.36E0,1.72E0,1.26E0,3.52E0,1.57E0,3.28E0,-2.9476127E-2,-2.0436706E-2,-6.72512E-4,-2.5971964E-2,-6.4213127E-3,1.438604E-2,3.0792465E-2,7.136212E-3],"split_indices":[5,4,4,4,4,4,4,0,0,0,0,0,0,0,0],"split_type":[0,0,0,0,0,0,0,0,0,0,0,0,0,0,0],"sum_hessian":[1.3420222E4,9.762268E3,3.6579546E3,2.8223992E3,6.9398687E3,4.1483096E2,3.2431235E3,2.4093538E3,4.130452E2,6.083844E3,8.560241E2,1.2835349E2,2.8647748E2,3.0651282E3,1.7799553E2],"tree_param":{"num_deleted":"0","num_feature":"6","num_nodes":"15","size_leaf_vector":"1"}},{"base_weights":[-1.8139137E-2,8.6179245E-1,-6.11888E-1,9.21732E-1,5.6198204E-1,-3.8626382E-1,-7.813873E-1,1.9813674E-2,2.7430512E-2,1.7981939E-2,-1.418222E-3,-8.751727E-3,-1.3417499E-2,-1.8582894E-2,-2.4528153E-2],"categories":[],"categories_nodes":[],"categories_segments":[],"categories_sizes":[],"default_left":[0,0,0,0,0,1,0,0,0,0,0,0,0,0,0],"id":60,"left_children":[1,3,5,7,9,11,13,-1,-1,-1,-1,-1,-1,-1,-1],"loss_changes":[6.937777E3,9.562744E1,3.029248E2,7.192383E1,5.317636E1,2.33638E1,5.2763184E1,0E0,0E0,0E0,0E0,0E0,0E0,0E0,0E0],"parents":[2147483647,0,0,1,1,2,2,3,3,4,4,5,5,6,6],"right_children":[2,4,6,8,10,12,14,-1,-1,-1,-1,-1,-1,-1,-1],"split_conditions":[1.1E1,9E0,1E0,4E0,2E0,1.4E1,2E0,1.9813674E-2,2.7430512E-2,1.7981939E-2,-1.418222E-3,-8.751727E-3,-1.3417499E-2,-1.8582894E-2,-2.4528153E-2],"split_indices":[0,0,2,0,2,0,2,0,0,0,0,0,0,0,0],"split_type":[0,0,0,0,0,0,0,0,0,0,0,0,0,0,0],"sum_hessian":[1.327709E4,5.3491846E3,7.927905E3,4.4562046E3,8.9298E2,3.4023042E3,4.5256006E3,1.3321748E3,3.1240298E3,7.7127045E2,1.217095E2,2.0986147E3,1.3036895E3,2.439843E3,2.0857578E3],"tree_param":{"num_deleted":"0","num_feature":"6","num_nodes":"15","size_leaf_vector":"1"}},{"base_weights":[-2.0767821E-2,-3.8828138E-1,9.7259206E-1,-1.2658171E-1,-6.1094564E-1,1.0016825E0,1.715697E-2,-4.563401E-3,-2.6787368E-3,-1.2987914E-2,-2.1413308E-2,2.8198117E-2,2.4952311E-2],"categories":[],"categories_nodes":[],"categories_segments":[],"categories_sizes":[],"default_left":[0,0,0,0,0,0,0,0,0,0,0,0,0],"id":61,"left_children":[1,3,5,7,9,11,-1,-1,-1,-1,-1,-1,-1],"loss_changes":[4.7869917E3,5.5765186E2,3.4807373E1,5.066635E0,1.2089392E2,8.025879E0,0E0,0E0,0E0,0E0,0E0,0E0,0E0],"parents":[2147483647,0,0,1,1,2,2,3,3,4,4,5,5],"right_children":[2,4,6,8,10,12,-1,-1,-1,-1,-1,-1,-1],"split_conditions":[1E0,1E0,2E0,1E0,2E0,1E0,1.715697E-2,-4.563401E-3,-2.6787368E-3,-1.2987914E-2,-2.1413308E-2,2.8198117E-2,2.4952311E-2],"split_indices":[5,2,2,1,2,2,0,0,0,0,0,0,0],"split_type":[0,0,0,0,0,0,0,0,0,0,0,0,0],"sum_hessian":[1.3110379E4,9.570272E3,3.5401064E3,4.4002183E3,5.170054E3,3.2623232E3,2.7778323E2,1.8104027E3,2.5898154E3,2.9092944E3,2.26076E3,2.3925454E3,8.697779E2],"tree_param":{"num_deleted":"0","num_feature":"6","num_nodes":"13","size_leaf_vector":"1"}},{"base_weights":[-1.7839625E-2,-3.7620863E-1,9.617747E-1,-1.0264554E0,-1.21044084E-1,3.085142E-2,1.0384363E0,-2.9301492E-2,-2.0592637E-2,-4.5819147E-4,-2.8067026E-2,-8.655093E-3,8.480987E-3,2.9701725E-2,8.095767E-3],"categories":[],"categories_nodes":[],"categories_segments":[],"categories_sizes":[],"default_left":[0,0,0,0,1,0,0,0,0,0,0,0,0,0,0],"id":62,"left_children":[1,3,5,7,9,11,13,-1,-1,-1,-1,-1,-1,-1,-1],"loss_changes":[4.5670825E3,1.5802307E3,2.4863916E2,3.3553223E1,6.4711646E2,2.6015402E1,1.1848682E2,0E0,0E0,0E0,0E0,0E0,0E0,0E0,0E0],"parents":[2147483647,0,0,1,1,2,2,3,3,4,4,5,5,6,6],"right_children":[2,4,6,8,10,12,14,-1,-1,-1,-1,-1,-1,-1,-1],"split_conditions":[1E0,1.36E0,1.65E0,1.26E0,3.59E0,1.56E0,3.24E0,-2.9301492E-2,-2.0592637E-2,-4.5819147E-4,-2.8067026E-2,-8.655093E-3,8.480987E-3,2.9701725E-2,8.095767E-3],"split_indices":[5,4,4,4,4,4,4,0,0,0,0,0,0,0,0],"split_type":[0,0,0,0,0,0,0,0,0,0,0,0,0,0,0],"sum_hessian":[1.3007251E4,9.523806E3,3.4834458E3,2.683163E3,6.8406426E3,2.6514282E2,3.218303E3,2.2848499E3,3.9831314E2,6.1364834E3,7.0415936E2,1.1813581E2,1.47007E2,3.0156023E3,2.0270065E2],"tree_param":{"num_deleted":"0","num_feature":"6","num_nodes":"15","size_leaf_vector":"1"}},{"base_weights":[-1.4972236E-2,-9.6458584E-1,2.6501945E-1,-1.0687408E0,-6.319451E-1,-9.860394E-1,4.512541E-1,-2.9584575E-2,-2.6061304E-2,-1.273986E-2,-2.811761E-2,-2.9460311E-2,-1.3765445E-2,1.8953783E-2,-2.7072283E-2],"categories":[],"categories_nodes":[],"categories_segments":[],"categories_sizes":[],"default_left":[1,0,0,0,1,0,0,0,0,0,0,0,0,0,0],"id":63,"left_children":[1,3,5,7,9,11,13,-1,-1,-1,-1,-1,-1,-1,-1],"loss_changes":[3.4230388E3,1.00891846E2,2.3169915E3,2.8166504E0,4.5663147E1,5.7371826E1,3.0377612E3,0E0,0E0,0E0,0E0,0E0,0E0,0E0,0E0],"parents":[2147483647,0,0,1,1,2,2,3,3,4,4,5,5,6,6],"right_children":[2,4,6,8,10,12,14,-1,-1,-1,-1,-1,-1,-1,-1],"split_conditions":[1.42E0,1.26E0,-1.01E0,1.17E0,7.5E-1,-1.1E0,1.06E0,-2.9584575E-2,-2.6061304E-2,-1.273986E-2,-2.811761E-2,-2.9460311E-2,-1.3765445E-2,1.8953783E-2,-2.7072283E-2],"split_indices":[4,4,3,4,3,3,3,0,0,0,0,0,0,0,0],"split_type":[0,0,0,0,0,0,0,0,0,0,0,0,0,0,0],"sum_hessian":[1.2872224E4,2.930559E3,9.941664E3,2.2300747E3,7.0048444E2,1.2876165E3,8.654048E3,1.9607826E3,2.692921E2,4.9663065E2,2.038538E2,1.07765E3,2.0996645E2,7.406585E3,1.2474631E3],"tree_param":{"num_deleted":"0","num_feature":"6","num_nodes":"15","size_leaf_vector":"1"}},{"base_weights":[-1.710876E-2,-3.6684802E-1,9.462122E-1,-1.0702163E-1,-5.918937E-1,9.7524816E-1,1.66689E-2,-3.9058693E-3,-2.2256933E-3,-1.2481297E-2,-2.0954683E-2,2.759805E-2,2.3937134E-2],"categories":[],"categories_nodes":[],"categories_segments":[],"categories_sizes":[],"default_left":[0,0,0,0,0,0,0,0,0,0,0,0,0],"id":64,"left_children":[1,3,5,7,9,11,-1,-1,-1,-1,-1,-1,-1],"loss_changes":[4.280973E3,5.4502356E2,3.237549E1,3.9666405E0,1.1787793E2,1.0084473E1,0E0,0E0,0E0,0E0,0E0,0E0,0E0],"parents":[2147483647,0,0,1,1,2,2,3,3,4,4,5,5],"right_children":[2,4,6,8,10,12,-1,-1,-1,-1,-1,-1,-1],"split_conditions":[1E0,1E0,2E0,1E0,2E0,1E0,1.66689E-2,-3.9058693E-3,-2.2256933E-3,-1.2481297E-2,-2.0954683E-2,2.759805E-2,2.3937134E-2],"split_indices":[5,2,2,1,2,2,0,0,0,0,0,0,0],"split_type":[0,0,0,0,0,0,0,0,0,0,0,0,0],"sum_hessian":[1.2704506E4,9.321061E3,3.3834458E3,4.3269067E3,4.9941533E3,3.1122017E3,2.7124432E2,1.7890173E3,2.5378892E3,2.8305981E3,2.1635554E3,2.2732068E3,8.389949E2],"tree_param":{"num_deleted":"0","num_feature":"6","num_nodes":"13","size_leaf_vector":"1"}},{"base_weights":[-1.478238E-2,-9.530982E-1,2.5906396E-1,-1.0659788E0,-5.9740686E-1,-9.798897E-1,4.4002825E-1,-2.948724E-2,-2.5765589E-2,-1.1709415E-2,-2.842033E-2,-2.9221827E-2,-1.4028486E-2,1.8453501E-2,-2.7093232E-2],"categories":[],"categories_nodes":[],"categories_segments":[],"categories_sizes":[],"default_left":[0,0,0,0,0,0,1,0,0,0,0,0,0,0,0],"id":65,"left_children":[1,3,5,7,9,11,13,-1,-1,-1,-1,-1,-1,-1,-1],"loss_changes":[3.238081E3,1.1366943E2,2.1875376E3,2.7609863E0,5.0985992E1,5.200891E1,2.879397E3,0E0,0E0,0E0,0E0,0E0,0E0,0E0,0E0],"parents":[2147483647,0,0,1,1,2,2,3,3,4,4,5,5,6,6],"right_children":[2,4,6,8,10,12,14,-1,-1,-1,-1,-1,-1,-1,-1],"split_conditions":[1.42E0,1.26E0,-1.01E0,1.18E0,7.8E-1,-1.1E0,1.06E0,-2.948724E-2,-2.5765589E-2,-1.1709415E-2,-2.842033E-2,-2.9221827E-2,-1.4028486E-2,1.8453501E-2,-2.7093232E-2],"split_indices":[4,4,3,4,3,3,3,0,0,0,0,0,0,0,0],"split_type":[0,0,0,0,0,0,0,0,0,0,0,0,0,0,0],"sum_hessian":[1.2599814E4,2.8459343E3,9.75388E3,2.158823E3,6.871113E2,1.24254E3,8.51134E3,1.9246177E3,2.3420532E2,4.9953436E2,1.8757698E2,1.0389618E3,2.035783E2,7.307778E3,1.203562E3],"tree_param":{"num_deleted":"0","num_feature":"6","num_nodes":"15","size_leaf_vector":"1"}},{"base_weights":[-2.0152291E-2,8.043247E-1,-5.773927E-1,8.688833E-1,4.937076E-1,-4.5152354E-1,-1.0631762E0,1.7774094E-2,2.6288819E-2,1.5969772E-2,-1.9558973E-3,-2.881279E-2,-7.817015E-3,-2.3337746E-2,-2.9716436E-2],"categories":[],"categories_nodes":[],"categories_segments":[],"categories_sizes":[],"default_left":[1,0,0,0,0,0,0,0,0,0,0,0,0,0,0],"id":66,"left_children":[1,3,5,7,9,11,13,-1,-1,-1,-1,-1,-1,-1,-1],"loss_changes":[5.728658E3,1.00411865E2,4.5445776E2,8.477954E1,4.4865982E1,5.893386E2,7.2072754E0,0E0,0E0,0E0,0E0,0E0,0E0,0E0,0E0],"parents":[2147483647,0,0,1,1,2,2,3,3,4,4,5,5,6,6],"right_children":[2,4,6,8,10,12,14,-1,-1,-1,-1,-1,-1,-1,-1],"split_conditions":[1.1E1,9E0,1.13E0,4E0,2E0,-1.08E0,1.2E0,1.7774094E-2,2.6288819E-2,1.5969772E-2,-1.9558973E-3,-2.881279E-2,-7.817015E-3,-2.3337746E-2,-2.9716436E-2],"split_indices":[0,0,3,0,2,3,3,0,0,0,0,0,0,0,0],"split_type":[0,0,0,0,0,0,0,0,0,0,0,0,0,0,0],"sum_hessian":[1.2466994E4,5.0277036E3,7.4392905E3,4.16107E3,8.666337E2,5.909926E3,1.5293646E3,1.259734E3,2.901336E3,7.460213E2,1.2061246E2,1.2675361E3,4.6423896E3,1.7096046E2,1.3584042E3],"tree_param":{"num_deleted":"0","num_feature":"6","num_nodes":"15","size_leaf_vector":"1"}},{"base_weights":[-1.8337723E-2,-3.5177052E-1,9.1858625E-1,-2.0573883E-1,-1.0420803E0,9.5622355E-1,5.063093E-1,-2.795324E-2,-8.562659E-4,-2.2666048E-2,-2.9661348E-2,1.7714644E-2,2.6833184E-2,1.6041702E-2,-2.4735073E-3],"categories":[],"categories_nodes":[],"categories_segments":[],"categories_sizes":[],"default_left":[0,1,0,0,0,0,0,0,0,0,0,0,0,0,0],"id":67,"left_children":[1,3,5,7,9,11,13,-1,-1,-1,-1,-1,-1,-1,-1],"loss_changes":[3.85397E3,9.1698474E2,4.9759766E1,1.0718071E3,1.4101074E1,2.3842773E1,1.3320366E1,0E0,0E0,0E0,0E0,0E0,0E0,0E0,0E0],"parents":[2147483647,0,0,1,1,2,2,3,3,4,4,5,5,6,6],"right_children":[2,4,6,8,10,12,14,-1,-1,-1,-1,-1,-1,-1,-1],"split_conditions":[1E0,1.1E0,6E-1,-1.05E0,1.21E0,-5.9E-1,2E0,-2.795324E-2,-8.562659E-4,-2.2666048E-2,-2.9661348E-2,1.7714644E-2,2.6833184E-2,1.6041702E-2,-2.4735073E-3],"split_indices":[5,3,3,3,3,3,2,0,0,0,0,0,0,0,0],"split_type":[0,0,0,0,0,0,0,0,0,0,0,0,0,0,0],"sum_hessian":[1.2334571E4,9.097555E3,3.2370159E3,7.510123E3,1.587432E3,2.9650166E3,2.7199936E2,1.3182241E3,6.191899E3,2.7982388E2,1.3076082E3,2.4047195E2,2.7245447E3,2.3936859E2,3.263076E1],"tree_param":{"num_deleted":"0","num_feature":"6","num_nodes":"15","size_leaf_vector":"1"}},{"base_weights":[-1.4695038E-2,7.910677E-1,-5.578132E-1,2.6387054E-1,9.266532E-1,-1.0218854E0,-3.3397874E-1,1.2510762E-2,3.0038197E-4,2.812647E-2,2.167824E-3,-2.9024659E-2,-2.0440377E-2,-6.385483E-3,-2.8389275E-2],"categories":[],"categories_nodes":[],"categories_segments":[],"categories_sizes":[],"default_left":[1,1,0,0,0,0,0,0,0,0,0,0,0,0,0],"id":68,"left_children":[1,3,5,7,9,11,13,-1,-1,-1,-1,-1,-1,-1,-1],"loss_changes":[5.3459033E3,3.513379E2,7.5765063E2,4.954766E1,3.4401318E2,2.6095703E1,3.475835E2,0E0,0E0,0E0,0E0,0E0,0E0,0E0,0E0],"parents":[2147483647,0,0,1,1,2,2,3,3,4,4,5,5,6,6],"right_children":[2,4,6,8,10,12,14,-1,-1,-1,-1,-1,-1,-1,-1],"split_conditions":[1.1E1,1.73E0,1.35E0,1E0,3.24E0,1.26E0,3.62E0,1.2510762E-2,3.0038197E-4,2.812647E-2,2.167824E-3,-2.9024659E-2,-2.0440377E-2,-6.385483E-3,-2.8389275E-2],"split_indices":[0,4,4,2,4,4,4,0,0,0,0,0,0,0,0],"split_type":[0,0,0,0,0,0,0,0,0,0,0,0,0,0,0],"sum_hessian":[1.2213726E4,4.9175938E3,7.296132E3,1.0065952E3,3.9109985E3,2.372891E3,4.9232407E3,5.6851666E2,4.3807852E2,3.4838699E3,4.2712863E2,2.0573096E3,3.1558163E2,4.313498E3,6.0974243E2],"tree_param":{"num_deleted":"0","num_feature":"6","num_nodes":"15","size_leaf_vector":"1"}},{"base_weights":[-1.0541291E-2,-3.3179343E-1,9.0504724E-1,-1.0005631E0,-9.026516E-2,1.2186053E-1,1.0113147E0,-2.8892977E-2,-1.8603474E-2,5.4578483E-4,-2.6498651E-2,-9.886647E-3,1.0650226E-2,2.9076146E-2,3.7633507E-3],"categories":[],"categories_nodes":[],"categories_segments":[],"categories_sizes":[],"default_left":[0,0,0,0,1,0,0,0,0,0,0,0,0,0,0],"id":69,"left_children":[1,3,5,7,9,11,13,-1,-1,-1,-1,-1,-1,-1,-1],"loss_changes":[3.547987E3,1.4422432E3,2.6063232E2,4.3104004E1,6.370682E2,4.8911293E1,1.2984668E2,0E0,0E0,0E0,0E0,0E0,0E0,0E0,0E0],"parents":[2147483647,0,0,1,1,2,2,3,3,4,4,5,5,6,6],"right_children":[2,4,6,8,10,12,14,-1,-1,-1,-1,-1,-1,-1,-1],"split_conditions":[1E0,1.36E0,1.72E0,1.26E0,3.55E0,1.58E0,3.28E0,-2.8892977E-2,-1.8603474E-2,5.4578483E-4,-2.6498651E-2,-9.886647E-3,1.0650226E-2,2.9076146E-2,3.7633507E-3],"split_indices":[5,4,4,4,4,4,4,0,0,0,0,0,0,0,0],"split_type":[0,0,0,0,0,0,0,0,0,0,0,0,0,0,0],"sum_hessian":[1.2060433E4,8.928375E3,3.1320574E3,2.368121E3,6.560254E3,3.744589E2,2.7575986E3,2.0018623E3,3.6625885E2,5.831087E3,7.29167E2,1.3341869E2,2.410402E2,2.596967E3,1.6063144E2],"tree_param":{"num_deleted":"0","num_feature":"6","num_nodes":"15","size_leaf_vector":"1"}},{"base_weights":[-1.7168097E-2,-3.3210745E-1,8.8912284E-1,-9.959861E-1,-9.56854E-2,1.2042604E-1,9.978073E-1,-2.8804446E-2,-1.8378537E-2,3.1363312E-4,-2.6023405E-2,-1.0474562E-2,1.0097846E-2,2.9002067E-2,6.4424267E-3],"categories":[],"categories_nodes":[],"categories_segments":[],"categories_sizes":[],"default_left":[0,0,0,0,1,0,0,0,0,0,0,0,0,0,0],"id":70,"left_children":[1,3,5,7,9,11,13,-1,-1,-1,-1,-1,-1,-1,-1],"loss_changes":[3.4068152E3,1.3901738E3,2.5704175E2,4.3811523E1,6.0056E2,4.8255592E1,1.3275171E2,0E0,0E0,0E0,0E0,0E0,0E0,0E0,0E0],"parents":[2147483647,0,0,1,1,2,2,3,3,4,4,5,5,6,6],"right_children":[2,4,6,8,10,12,14,-1,-1,-1,-1,-1,-1,-1,-1],"split_conditions":[1E0,1.36E0,1.72E0,1.26E0,3.55E0,1.57E0,3.22E0,-2.8804446E-2,-1.8378537E-2,3.1363312E-4,-2.6023405E-2,-1.0474562E-2,1.0097846E-2,2.9002067E-2,6.4424267E-3],"split_indices":[5,4,4,4,4,4,4,0,0,0,0,0,0,0,0],"split_type":[0,0,0,0,0,0,0,0,0,0,0,0,0,0,0],"sum_hessian":[1.1933835E4,8.856725E3,3.07711E3,2.3249626E3,6.5317617E3,3.814342E2,2.695676E3,1.961949E3,3.630137E2,5.807135E3,7.2462695E2,1.2610228E2,2.5533192E2,2.484149E3,2.1152693E2],"tree_param":{"num_deleted":"0","num_feature":"6","num_nodes":"15","size_leaf_vector":"1"}},{"base_weights":[-1.9469852E-2,-3.2887998E-1,8.78855E-1,-1.8299209E-1,-1.0352082E0,9.1851324E-1,4.5723912E-1,-2.7357113E-2,-8.415706E-5,-1.9628868E-2,-2.9205393E-2,1.635881E-2,2.5852334E-2,1.4901482E-2,-5.155888E-3],"categories":[],"categories_nodes":[],"categories_segments":[],"categories_sizes":[],"default_left":[0,1,0,1,0,0,0,0,0,0,0,0,0,0,0],"id":71,"left_children":[1,3,5,7,9,11,13,-1,-1,-1,-1,-1,-1,-1,-1],"loss_changes":[3.2884805E3,9.066131E2,5.0260742E1,1.075243E3,1.5794312E1,2.4749512E1,1.51538925E1,0E0,0E0,0E0,0E0,0E0,0E0,0E0,0E0],"parents":[2147483647,0,0,1,1,2,2,3,3,4,4,5,5,6,6],"right_children":[2,4,6,8,10,12,14,-1,-1,-1,-1,-1,-1,-1,-1],"split_conditions":[1E0,1.1E0,6E-1,-1.03E0,1.16E0,-5.9E-1,2E0,-2.7357113E-2,-8.415706E-5,-1.9628868E-2,-2.9205393E-2,1.635881E-2,2.5852334E-2,1.4901482E-2,-5.155888E-3],"split_indices":[5,3,3,3,3,3,2,0,0,0,0,0,0,0,0],"split_type":[0,0,0,0,0,0,0,0,0,0,0,0,0,0,0],"sum_hessian":[1.1829121E4,8.799085E3,3.030036E3,7.2938438E3,1.5052411E3,2.76845E3,2.6158588E2,1.3124514E3,5.981392E3,1.5141724E2,1.3538239E3,2.297788E2,2.5386711E3,2.3014438E2,3.1441492E1],"tree_param":{"num_deleted":"0","num_feature":"6","num_nodes":"15","size_leaf_vector":"1"}},{"base_weights":[-1.5337601E-2,7.561631E-1,-5.3566253E-1,8.231533E-1,4.3712467E-1,-4.0750387E-1,-1.0511351E0,1.6658287E-2,2.5015507E-2,3.2647771E-3,1.5842004E-2,-2.8383551E-2,-6.5966803E-3,-2.1523226E-2,-2.9309139E-2],"categories":[],"categories_nodes":[],"categories_segments":[],"categories_sizes":[],"default_left":[0,0,1,0,0,0,0,0,0,0,0,0,0,0,0],"id":72,"left_children":[1,3,5,7,9,11,13,-1,-1,-1,-1,-1,-1,-1,-1],"loss_changes":[4.696039E3,1.0034375E2,4.611078E2,7.678491E1,3.722664E1,5.866552E2,7.4294434E0,0E0,0E0,0E0,0E0,0E0,0E0,0E0,0E0],"parents":[2147483647,0,0,1,1,2,2,3,3,4,4,5,5,6,6],"right_children":[2,4,6,8,10,12,14,-1,-1,-1,-1,-1,-1,-1,-1],"split_conditions":[1.1E1,9E0,1.13E0,4E0,1E0,-1.08E0,1.18E0,1.6658287E-2,2.5015507E-2,3.2647771E-3,1.5842004E-2,-2.8383551E-2,-6.5966803E-3,-2.1523226E-2,-2.9309139E-2],"split_indices":[0,0,3,0,1,3,3,0,0,0,0,0,0,0,0],"split_type":[0,0,0,0,0,0,0,0,0,0,0,0,0,0,0],"sum_hessian":[1.1696236E4,4.710858E3,6.985378E3,3.892045E3,8.188133E2,5.595896E3,1.3894817E3,1.1888168E3,2.703228E3,2.5517491E2,5.6363837E2,1.1614025E3,4.4344937E3,1.1325619E2,1.2762255E3],"tree_param":{"num_deleted":"0","num_feature":"6","num_nodes":"15","size_leaf_vector":"1"}},{"base_weights":[-1.6560702E-2,-8.834206E-1,2.5446713E-1,-1.0468473E0,-5.1058006E-1,-9.65793E-1,4.194627E-1,-2.9132051E-2,-2.3918834E-2,-8.862973E-3,-2.8214946E-2,-2.9428639E-2,-1.5806925E-2,1.7389514E-2,-2.5270797E-2],"categories":[],"categories_nodes":[],"categories_segments":[],"categories_sizes":[],"default_left":[0,0,0,0,0,0,1,0,0,0,0,0,0,0,0],"id":73,"left_children":[1,3,5,7,9,11,13,-1,-1,-1,-1,-1,-1,-1,-1],"loss_changes":[2.7187114E3,1.6740796E2,1.7753175E3,5.7495117E0,8.152547E1,4.5019104E1,2.2744968E3,0E0,0E0,0E0,0E0,0E0,0E0,0E0,0E0],"parents":[2147483647,0,0,1,1,2,2,3,3,4,4,5,5,6,6],"right_children":[2,4,6,8,10,12,14,-1,-1,-1,-1,-1,-1,-1,-1],"split_conditions":[1.46E0,1.27E0,-1.03E0,1.19E0,7.7E-1,-1.16E0,1.05E0,-2.9132051E-2,-2.3918834E-2,-8.862973E-3,-2.8214946E-2,-2.9428639E-2,-1.5806925E-2,1.7389514E-2,-2.5270797E-2],"split_indices":[4,4,3,4,3,3,3,0,0,0,0,0,0,0,0],"split_type":[0,0,0,0,0,0,0,0,0,0,0,0,0,0,0],"sum_hessian":[1.1569826E4,2.7552214E3,8.814605E3,1.9143146E3,8.4090686E2,1.0493153E3,7.7652896E3,1.7044857E3,2.098289E2,6.216567E2,2.1925021E2,8.116265E2,2.3768884E2,6.6844365E3,1.080853E3],"tree_param":{"num_deleted":"0","num_feature":"6","num_nodes":"15","size_leaf_vector":"1"}},{"base_weights":[-1.7435702E-2,-3.1214222E-1,8.515738E-1,-1.0049344E0,-8.597342E-2,-8.924528E-2,9.5091563E-1,-2.8934695E-2,-2.0955693E-2,6.336014E-4,-2.4842935E-2,-1.251197E-2,5.508192E-3,2.7600434E-2,4.4135605E-3],"categories":[],"categories_nodes":[],"categories_segments":[],"categories_sizes":[],"default_left":[0,0,0,0,1,0,0,0,0,0,0,0,0,0,0],"id":74,"left_children":[1,3,5,7,9,11,13,-1,-1,-1,-1,-1,-1,-1,-1],"loss_changes":[2.9375137E3,1.3419883E3,2.7157056E2,2.67583E1,5.812174E2,2.9997755E1,1.2484204E2,0E0,0E0,0E0,0E0,0E0,0E0,0E0,0E0],"parents":[2147483647,0,0,1,1,2,2,3,3,4,4,5,5,6,6],"right_children":[2,4,6,8,10,12,14,-1,-1,-1,-1,-1,-1,-1,-1],"split_conditions":[1E0,1.34E0,1.67E0,1.21E0,3.52E0,1.57E0,3.24E0,-2.8934695E-2,-2.0955693E-2,6.336014E-4,-2.4842935E-2,-1.251197E-2,5.508192E-3,2.7600434E-2,4.4135605E-3],"split_indices":[5,4,4,4,4,4,4,0,0,0,0,0,0,0,0],"split_type":[0,0,0,0,0,0,0,0,0,0,0,0,0,0,0],"sum_hessian":[1.14680205E4,8.564268E3,2.9037524E3,2.1069353E3,6.4573325E3,2.7733597E2,2.6264165E3,1.7066356E3,4.002997E2,5.7028174E3,7.545149E2,1.2200899E2,1.5532698E2,2.4397725E3,1.8664412E2],"tree_param":{"num_deleted":"0","num_feature":"6","num_nodes":"15","size_leaf_vector":"1"}},{"base_weights":[-1.8171685E-2,7.2215503E-1,-5.183396E-1,1.9436549E-1,8.687845E-1,-1.0048717E0,-3.0876872E-1,-1.9637452E-4,1.006371E-2,2.7228994E-2,3.7216053E-3,-2.8592393E-2,-1.9203158E-2,-5.8471635E-3,-2.785817E-2],"categories":[],"categories_nodes":[],"categories_segments":[],"categories_sizes":[],"default_left":[1,1,0,1,0,0,0,0,0,0,0,0,0,0,0],"id":75,"left_children":[1,3,5,7,9,11,13,-1,-1,-1,-1,-1,-1,-1,-1],"loss_changes":[4.2056553E3,3.5423462E2,6.9082654E2,3.503506E1,3.3794556E2,2.5496094E1,3.187413E2,0E0,0E0,0E0,0E0,0E0,0E0,0E0,0E0],"parents":[2147483647,0,0,1,1,2,2,3,3,4,4,5,5,6,6],"right_children":[2,4,6,8,10,12,14,-1,-1,-1,-1,-1,-1,-1,-1],"split_conditions":[1.1E1,1.73E0,1.34E0,1.57E0,3.16E0,1.26E0,3.62E0,-1.9637452E-4,1.006371E-2,2.7228994E-2,3.7216053E-3,-2.8592393E-2,-1.9203158E-2,-5.8471635E-3,-2.785817E-2],"split_indices":[0,4,4,4,4,4,4,0,0,0,0,0,0,0,0],"split_type":[0,0,0,0,0,0,0,0,0,0,0,0,0,0,0],"sum_hessian":[1.1355793E4,4.578481E3,6.777312E3,9.959402E2,3.582541E3,2.0392557E3,4.738056E3,4.623548E2,5.335854E2,3.0464297E3,5.3611127E2,1.7841267E3,2.5512903E2,4.1837095E3,5.543467E2],"tree_param":{"num_deleted":"0","num_feature":"6","num_nodes":"15","size_leaf_vector":"1"}},{"base_weights":[-1.4368211E-2,7.1718353E-1,-5.053808E-1,1.8102561E-1,8.606635E-1,-1.0020307E0,-2.966027E-1,-2.7936107E-5,9.428106E-3,2.685867E-2,3.2594483E-3,-2.8908553E-2,-2.1353353E-2,-5.5501936E-3,-2.7559618E-2],"categories":[],"categories_nodes":[],"categories_segments":[],"categories_sizes":[],"default_left":[0,0,0,0,0,0,1,0,0,0,0,0,0,0,0],"id":76,"left_children":[1,3,5,7,9,11,13,-1,-1,-1,-1,-1,-1,-1,-1],"loss_changes":[4.031156E3,3.4657886E2,6.960077E2,2.8515554E1,3.249961E2,2.4096924E1,3.143069E2,0E0,0E0,0E0,0E0,0E0,0E0,0E0,0E0],"parents":[2147483647,0,0,1,1,2,2,3,3,4,4,5,5,6,6],"right_children":[2,4,6,8,10,12,14,-1,-1,-1,-1,-1,-1,-1,-1],"split_conditions":[1.1E1,1.72E0,1.34E0,1.57E0,3.18E0,1.19E0,3.62E0,-2.7936107E-5,9.428106E-3,2.685867E-2,3.2594483E-3,-2.8908553E-2,-2.1353353E-2,-5.5501936E-3,-2.7559618E-2],"split_indices":[0,4,4,4,4,4,4,0,0,0,0,0,0,0,0],"split_type":[0,0,0,0,0,0,0,0,0,0,0,0,0,0,0],"sum_hessian":[1.122055E4,4.50627E3,6.71428E3,9.5180664E2,3.5544636E3,1.9860303E3,4.7282495E3,4.521208E2,4.9968585E2,3.0470386E3,5.0742496E2,1.573344E3,4.1268625E2,4.182541E3,5.4570856E2],"tree_param":{"num_deleted":"0","num_feature":"6","num_nodes":"15","size_leaf_vector":"1"}},{"base_weights":[-1.4136989E-2,-2.943334E-1,8.3108866E-1,-1.5009233E-1,-1.0134825E0,8.789805E-1,3.334008E-1,-2.7446972E-2,5.4809474E-4,-1.8889865E-2,-2.9028816E-2,2.4804892E-2,1.4595456E-2,1.1763937E-2,-9.30853E-3],"categories":[],"categories_nodes":[],"categories_segments":[],"categories_sizes":[],"default_left":[0,1,0,0,0,0,0,0,0,0,0,0,0,0,0],"id":77,"left_children":[1,3,5,7,9,11,13,-1,-1,-1,-1,-1,-1,-1,-1],"loss_changes":[2.633166E3,8.6602386E2,6.56864E1,1.0127334E3,2.1702148E1,2.5411255E1,1.6247425E1,0E0,0E0,0E0,0E0,0E0,0E0,0E0,0E0],"parents":[2147483647,0,0,1,1,2,2,3,3,4,4,5,5,6,6],"right_children":[2,4,6,8,10,12,14,-1,-1,-1,-1,-1,-1,-1,-1],"split_conditions":[1E0,1.09E0,6E-1,-1.05E0,1.17E0,2E0,2E0,-2.7446972E-2,5.4809474E-4,-1.8889865E-2,-2.9028816E-2,2.4804892E-2,1.4595456E-2,1.1763937E-2,-9.30853E-3],"split_indices":[5,3,3,3,3,2,2,0,0,0,0,0,0,0,0],"split_type":[0,0,0,0,0,0,0,0,0,0,0,0,0,0,0],"sum_hessian":[1.1116385E4,8.349228E3,2.7671577E3,6.955382E3,1.3938453E3,2.5235532E3,2.4360432E2,1.1531934E3,5.8021885E3,1.8979979E2,1.2040455E3,2.3210002E3,2.0255319E2,2.131247E2,3.047964E1],"tree_param":{"num_deleted":"0","num_feature":"6","num_nodes":"15","size_leaf_vector":"1"}},{"base_weights":[-1.5412191E-2,6.9887215E-1,-4.913609E-1,5.004162E-1,8.232535E-1,-3.288439E-1,-5.649495E-1,7.504963E-3,1.5878728E-2,2.4185546E-2,1.1817085E-2,-1.1328877E-2,-5.7565E-3,-1.3383744E-2,-1.674457E-2],"categories":[],"categories_nodes":[],"categories_segments":[],"categories_sizes":[],"default_left":[0,0,1,0,0,0,0,0,0,0,0,0,0,0,0],"id":78,"left_children":[1,3,5,7,9,11,13,-1,-1,-1,-1,-1,-1,-1,-1],"loss_changes":[3.7425862E3,1.08252686E2,7.8825195E1,3.0988068E1,6.594678E1,2.087439E1,1.6157104E1,0E0,0E0,0E0,0E0,0E0,0E0,0E0,0E0],"parents":[2147483647,0,0,1,1,2,2,3,3,4,4,5,5,6,6],"right_children":[2,4,6,8,10,12,14,-1,-1,-1,-1,-1,-1,-1,-1],"split_conditions":[1.1E1,1E0,1.3E1,4E0,9E0,1.2E1,1.4E1,7.504963E-3,1.5878728E-2,2.4185546E-2,1.1817085E-2,-1.1328877E-2,-5.7565E-3,-1.3383744E-2,-1.674457E-2],"split_indices":[0,5,0,0,0,0,0,0,0,0,0,0,0,0,0],"split_type":[0,0,0,0,0,0,0,0,0,0,0,0,0,0,0],"sum_hessian":[1.1006803E4,4.4011978E3,6.6056055E3,1.6976091E3,2.7035884E3,2.0605173E3,4.5450884E3,4.5122153E2,1.2463876E3,2.3276033E3,3.75985E2,1.1889216E3,8.7159576E2,1.7954933E3,2.7495947E3],"tree_param":{"num_deleted":"0","num_feature":"6","num_nodes":"15","size_leaf_vector":"1"}},{"base_weights":[-1.3567865E-2,6.7922837E-1,-4.7640178E-1,4.7341242E-1,8.086476E-1,-3.4259936E-1,-1.0417918E0,6.750731E-3,1.5201894E-2,2.3821227E-2,1.14685735E-2,-2.7407771E-2,-4.6475693E-3,-2.2523277E-2,-2.917041E-2],"categories":[],"categories_nodes":[],"categories_segments":[],"categories_sizes":[],"default_left":[1,0,0,1,0,0,0,0,0,0,0,0,0,0,0],"id":79,"left_children":[1,3,5,7,9,11,13,-1,-1,-1,-1,-1,-1,-1,-1],"loss_changes":[3.4817844E3,1.1545654E2,4.9210083E2,3.1618011E1,6.6076416E1,6.000884E2,6.3809814E0,0E0,0E0,0E0,0E0,0E0,0E0,0E0,0E0],"parents":[2147483647,0,0,1,1,2,2,3,3,4,4,5,5,6,6],"right_children":[2,4,6,8,10,12,14,-1,-1,-1,-1,-1,-1,-1,-1],"split_conditions":[1.1E1,1E0,1.13E0,4E0,9E0,-1.06E0,1.2E0,6.750731E-3,1.5201894E-2,2.3821227E-2,1.14685735E-2,-2.7407771E-2,-4.6475693E-3,-2.2523277E-2,-2.917041E-2],"split_indices":[0,5,3,0,0,3,3,0,0,0,0,0,0,0,0],"split_type":[0,0,0,0,0,0,0,0,0,0,0,0,0,0,0],"sum_hessian":[1.0856524E4,4.3478887E3,6.5086357E3,1.680322E3,2.6675667E3,5.2643955E3,1.2442402E3,4.544405E2,1.2258816E3,2.2887102E3,3.7885663E2,1.0869343E3,4.1774614E3,1.4107681E2,1.1031635E3],"tree_param":{"num_deleted":"0","num_feature":"6","num_nodes":"15","size_leaf_vector":"1"}},{"base_weights":[-1.3515688E-2,-2.754653E-1,8.001769E-1,-9.735594E-1,-5.1527724E-2,-1.9651766E-1,8.992536E-1,-2.8740078E-2,-1.9407632E-2,3.354802E-3,-2.707739E-2,-6.649634E-4,-2.4572136E-2,2.6545065E-2,1.9421064E-3],"categories":[],"categories_nodes":[],"categories_segments":[],"categories_sizes":[],"default_left":[0,0,0,0,1,0,0,0,0,0,0,0,0,0,0],"id":80,